{"learner":{"attributes":{"best_iteration":"374","best_score":"0.11549204238039107"},"feature_names":["angle","y","DistanceShooterGk","distance","minus"],"feature_types":["float","float","float","float","float"],"gradient_booster":{"model":{"gbtree_model_param":{"num_parallel_tree":"1","num_trees":"625"},"iteration_indptr":[0,1,2,3,4,5,6,7,8,9,10,11,12,13,14,15,16,17,18,19,20,21,22,23,24,25,26,27,28,29,30,31,32,33,34,35,36,37,38,39,40,41,42,43,44,45,46,47,48,49,50,51,52,53,54,55,56,57,58,59,60,61,62,63,64,65,66,67,68,69,70,71,72,73,74,75,76,77,78,79,80,81,82,83,84,85,86,87,88,89,90,91,92,93,94,95,96,97,98,99,100,101,102,103,104,105,106,107,108,109,110,111,112,113,114,115,116,117,118,119,120,121,122,123,124,125,126,127,128,129,130,131,132,133,134,135,136,137,138,139,140,141,142,143,144,145,146,147,148,149,150,151,152,153,154,155,156,157,158,159,160,161,162,163,164,165,166,167,168,169,170,171,172,173,174,175,176,177,178,179,180,181,182,183,184,185,186,187,188,189,190,191,192,193,194,195,196,197,198,199,200,201,202,203,204,205,206,207,208,209,210,211,212,213,214,215,216,217,218,219,220,221,222,223,224,225,226,227,228,229,230,231,232,233,234,235,236,237,238,239,240,241,242,243,244,245,246,247,248,249,250,251,252,253,254,255,256,257,258,259,260,261,262,263,264,265,266,267,268,269,270,271,272,273,274,275,276,277,278,279,280,281,282,283,284,285,286,287,288,289,290,291,292,293,294,295,296,297,298,299,300,301,302,303,304,305,306,307,308,309,310,311,312,313,314,315,316,317,318,319,320,321,322,323,324,325,326,327,328,329,330,331,332,333,334,335,336,337,338,339,340,341,342,343,344,345,346,347,348,349,350,351,352,353,354,355,356,357,358,359,360,361,362,363,364,365,366,367,368,369,370,371,372,373,374,375,376,377,378,379,380,381,382,383,384,385,386,387,388,389,390,391,392,393,394,395,396,397,398,399,400,401,402,403,404,405,406,407,408,409,410,411,412,413,414,415,416,417,418,419,420,421,422,423,424,425,426,427,428,429,430,431,432,433,434,435,436,437,438,439,440,441,442,443,444,445,446,447,448,449,450,451,452,453,454,455,456,457,458,459,460,461,462,463,464,465,466,467,468,469,470,471,472,473,474,475,476,477,478,479,480,481,482,483,484,485,486,487,488,489,490,491,492,493,494,495,496,497,498,499,500,501,502,503,504,505,506,507,508,509,510,511,512,513,514,515,516,517,518,519,520,521,522,523,524,525,526,527,528,529,530,531,532,533,534,535,536,537,538,539,540,541,542,543,544,545,546,547,548,549,550,551,552,553,554,555,556,557,558,559,560,561,562,563,564,565,566,567,568,569,570,571,572,573,574,575,576,577,578,579,580,581,582,583,584,585,586,587,588,589,590,591,592,593,594,595,596,597,598,599,600,601,602,603,604,605,606,607,608,609,610,611,612,613,614,615,616,617,618,619,620,621,622,623,624,625],"tree_info":[0,0,0,0,0,0,0,0,0,0,0,0,0,0,0,0,0,0,0,0,0,0,0,0,0,0,0,0,0,0,0,0,0,0,0,0,0,0,0,0,0,0,0,0,0,0,0,0,0,0,0,0,0,0,0,0,0,0,0,0,0,0,0,0,0,0,0,0,0,0,0,0,0,0,0,0,0,0,0,0,0,0,0,0,0,0,0,0,0,0,0,0,0,0,0,0,0,0,0,0,0,0,0,0,0,0,0,0,0,0,0,0,0,0,0,0,0,0,0,0,0,0,0,0,0,0,0,0,0,0,0,0,0,0,0,0,0,0,0,0,0,0,0,0,0,0,0,0,0,0,0,0,0,0,0,0,0,0,0,0,0,0,0,0,0,0,0,0,0,0,0,0,0,0,0,0,0,0,0,0,0,0,0,0,0,0,0,0,0,0,0,0,0,0,0,0,0,0,0,0,0,0,0,0,0,0,0,0,0,0,0,0,0,0,0,0,0,0,0,0,0,0,0,0,0,0,0,0,0,0,0,0,0,0,0,0,0,0,0,0,0,0,0,0,0,0,0,0,0,0,0,0,0,0,0,0,0,0,0,0,0,0,0,0,0,0,0,0,0,0,0,0,0,0,0,0,0,0,0,0,0,0,0,0,0,0,0,0,0,0,0,0,0,0,0,0,0,0,0,0,0,0,0,0,0,0,0,0,0,0,0,0,0,0,0,0,0,0,0,0,0,0,0,0,0,0,0,0,0,0,0,0,0,0,0,0,0,0,0,0,0,0,0,0,0,0,0,0,0,0,0,0,0,0,0,0,0,0,0,0,0,0,0,0,0,0,0,0,0,0,0,0,0,0,0,0,0,0,0,0,0,0,0,0,0,0,0,0,0,0,0,0,0,0,0,0,0,0,0,0,0,0,0,0,0,0,0,0,0,0,0,0,0,0,0,0,0,0,0,0,0,0,0,0,0,0,0,0,0,0,0,0,0,0,0,0,0,0,0,0,0,0,0,0,0,0,0,0,0,0,0,0,0,0,0,0,0,0,0,0,0,0,0,0,0,0,0,0,0,0,0,0,0,0,0,0,0,0,0,0,0,0,0,0,0,0,0,0,0,0,0,0,0,0,0,0,0,0,0,0,0,0,0,0,0,0,0,0,0,0,0,0,0,0,0,0,0,0,0,0,0,0,0,0,0,0,0,0,0,0,0,0,0,0,0,0,0,0,0,0,0,0,0,0,0,0,0,0,0,0,0,0,0,0,0,0,0,0,0,0,0,0,0,0,0,0,0,0,0,0,0,0,0,0,0,0,0,0,0,0,0,0,0,0,0,0,0,0,0,0,0,0,0,0,0,0,0,0,0,0,0,0,0,0,0,0,0,0,0,0,0,0,0,0,0,0,0,0,0,0,0,0,0,0,0],"trees":[{"base_weights":[-9.0792733E-1,-9.750505E-1,-7.3551667E-1,-8.963073E-1,-1.0355438E0,-7.6189613E-1,8.816924E-1,-9.040677E-1,3.1357035E-1,-1.0392953E-2,-4.299859E-1,-7.8170776E-1,-3.053964E-1,2.8707057E-2,4.6666753E-1,4.03649E-3,-9.061041E-3,6.817162E-3,-6.406469E-3,-5.8932696E-3,3.207951E-3,-2.956617E-3,-7.878534E-3,-5.8208923E-3,8.4485335E-4,7.1898876E-3,-7.079227E-3],"categories":[],"categories_nodes":[],"categories_segments":[],"categories_sizes":[],"default_left":[0,0,0,0,0,0,0,0,0,0,0,0,0,0,0,0,0,0,0,0,0,0,0,0,0,0,0],"id":0,"left_children":[1,3,5,7,9,11,13,15,17,-1,19,21,23,-1,25,-1,-1,-1,-1,-1,-1,-1,-1,-1,-1,-1,-1],"loss_changes":[3.102295E1,8.460693E0,3.3632874E1,8.393677E0,2.0709229E0,6.641632E0,9.279573E0,2.6520386E0,2.6314697E0,0E0,1.2094011E0,1.9430237E0,3.6397963E0,0E0,4.0173035E0,0E0,0E0,0E0,0E0,0E0,0E0,0E0,0E0,0E0,0E0,0E0,0E0],"parents":[2147483647,0,0,1,1,2,2,3,3,4,4,5,5,6,6,7,7,8,8,10,10,11,11,12,12,14,14],"right_children":[2,4,6,8,10,12,14,16,18,-1,20,22,24,-1,26,-1,-1,-1,-1,-1,-1,-1,-1,-1,-1,-1,-1],"split_conditions":[1.7002056E1,2.69E1,-1.37E1,-7.2E0,-1.52E1,-1.59E1,3.05E1,6.384685E0,5.41E1,-1.0392953E-2,1.4142346E1,-2.49E1,1.976437E1,2.8707057E-2,2.1616901E1,4.03649E-3,-9.061041E-3,6.817162E-3,-6.406469E-3,-5.8932696E-3,3.207951E-3,-2.956617E-3,-7.878534E-3,-5.8208923E-3,8.4485335E-4,7.1898876E-3,-7.079227E-3],"split_indices":[0,3,4,4,4,4,1,0,1,0,0,4,0,0,0,0,0,0,0,0,0,0,0,0,0,0,0],"split_type":[0,0,0,0,0,0,0,0,0,0,0,0,0,0,0,0,0,0,0,0,0,0,0,0,0,0,0],"sum_hessian":[2.7416487E3,1.9700216E3,7.7162695E2,8.627757E2,1.107246E3,7.597628E2,1.1864164E1,8.575281E2,5.247611E0,1.0997167E3,7.529181E0,7.274786E2,3.2284214E1,1.0267065E0,1.0837458E1,1.0267065E0,8.565014E2,3.9927475E0,1.2548635E0,6.388396E0,1.140785E0,9.696672E0,7.177819E2,1.8594795E1,1.368942E1,9.240358E0,1.597099E0],"tree_param":{"num_deleted":"0","num_feature":"5","num_nodes":"27","size_leaf_vector":"1"}},{"base_weights":[-9.03818E-1,-1.9242798E-1,-9.326876E-1,1.9636762E-1,-4.52959E-1,-8.62001E-1,-1.0384961E0,-4.368947E-1,3.414071E-1,-7.1548617E-1,-1.8199722E-1,-7.828761E-1,-9.004425E-1,-1.0392953E-2,-2.8311366E-3,2.50602E-3,-5.873989E-3,2.4650099E-2,1.9497828E-3,-3.0027176E-3,-8.024931E-3,3.0193392E-3,-3.3165987E-3,-5.199612E-3,-8.407476E-3,2.4362754E-3,-9.020401E-3],"categories":[],"categories_nodes":[],"categories_segments":[],"categories_sizes":[],"default_left":[0,0,0,0,0,0,0,0,0,0,0,0,0,0,0,0,0,0,0,0,0,0,0,0,0,0,0],"id":1,"left_children":[1,3,5,7,9,11,13,15,17,19,21,23,25,-1,-1,-1,-1,-1,-1,-1,-1,-1,-1,-1,-1,-1,-1],"loss_changes":[5.585327E1,1.0994362E1,1.8712646E1,4.180828E0,4.4769573E0,4.093506E0,3.36792E-1,1.0389849E0,1.0799746E1,9.351063E-1,2.5056045E0,7.527832E0,2.1481934E0,0E0,0E0,0E0,0E0,0E0,0E0,0E0,0E0,0E0,0E0,0E0,0E0,0E0,0E0],"parents":[2147483647,0,0,1,1,2,2,3,3,4,4,5,5,6,6,7,7,8,8,9,9,10,10,11,11,12,12],"right_children":[2,4,6,8,10,12,14,16,18,20,22,24,26,-1,-1,-1,-1,-1,-1,-1,-1,-1,-1,-1,-1,-1,-1],"split_conditions":[1.774514E1,1.6200308E1,2.5730915E1,1.4393652E1,1.7173235E1,2.1023796E1,-1.09E1,-1.09E1,1.4893442E1,-1.66E1,1.7524199E1,-1.96E1,6.384685E0,-1.0392953E-2,-2.8311366E-3,2.50602E-3,-5.873989E-3,2.4650099E-2,1.9497828E-3,-3.0027176E-3,-8.024931E-3,3.0193392E-3,-3.3165987E-3,-5.199612E-3,-8.407476E-3,2.4362754E-3,-9.020401E-3],"split_indices":[2,2,2,0,2,2,4,4,0,4,0,4,0,0,0,0,0,0,0,0,0,0,0,0,0,0,0],"split_type":[0,0,0,0,0,0,0,0,0,0,0,0,0,0,0,0,0,0,0,0,0,0,0,0,0,0,0],"sum_hessian":[2.7273066E3,1.0666176E2,2.6206448E3,4.2894993E1,6.376677E1,1.5765559E3,1.044089E3,7.618654E0,3.527634E1,3.155423E1,3.221254E1,5.2248303E2,1.0540729E3,1.0426099E3,1.4790574E0,1.2488546E0,6.369799E0,1.2541196E0,3.402222E1,6.23772E0,2.531651E1,7.3686695E0,2.484387E1,9.606009E1,4.264229E2,1.2586614E0,1.0528142E3],"tree_param":{"num_deleted":"0","num_feature":"5","num_nodes":"27","size_leaf_vector":"1"}},{"base_weights":[-9.073796E-1,2.7463993E-1,-9.267646E-1,4.2730087E-1,-3.638017E-1,-8.566619E-1,-1.0363455E0,5.73146E-1,-5.476994E-1,1.9506747E-1,-9.101566E-3,-4.8444864E-1,-8.715949E-1,-1.8790584E-3,-1.0371826E0,-3.745854E-3,6.864753E-3,-1.4573331E-3,-6.2423614E-3,-4.9189394E-3,8.67523E-3,-7.5003384E-3,-2.0406186E-3,-9.038841E-3,-7.793799E-3,-9.5351245E-3,-1.0502317E-2],"categories":[],"categories_nodes":[],"categories_segments":[],"categories_sizes":[],"default_left":[0,0,0,0,0,0,0,0,0,0,0,0,0,0,0,0,0,0,0,0,0,0,0,0,0,0,0],"id":2,"left_children":[1,3,5,7,9,11,13,15,17,19,-1,21,23,-1,25,-1,-1,-1,-1,-1,-1,-1,-1,-1,-1,-1,-1],"loss_changes":[6.2045654E1,4.471584E0,1.949585E1,5.461254E0,2.951776E0,8.604248E0,5.371094E-1,3.6916237E0,6.9667816E-2,2.881959E0,0E0,4.6791945E0,3.940796E0,0E0,1.2219238E-1,0E0,0E0,0E0,0E0,0E0,0E0,0E0,0E0,0E0,0E0,0E0,0E0],"parents":[2147483647,0,0,1,1,2,2,3,3,4,4,5,5,6,6,7,7,8,8,9,9,11,11,12,12,14,14],"right_children":[2,4,6,8,10,12,14,16,18,20,-1,22,24,-1,26,-1,-1,-1,-1,-1,-1,-1,-1,-1,-1,-1,-1],"split_conditions":[1.6200308E1,2.4229734E1,2.5730915E1,2.1820988E1,1.46195E1,1.774514E1,2.42E1,1.3999702E1,2.0125854E1,1.0049875E1,-9.101566E-3,1.7173235E1,1.8083109E1,-1.8790584E-3,2.7530529E1,-3.745854E-3,6.864753E-3,-1.4573331E-3,-6.2423614E-3,-4.9189394E-3,8.67523E-3,-7.5003384E-3,-2.0406186E-3,-9.038841E-3,-7.793799E-3,-9.5351245E-3,-1.0502317E-2],"split_indices":[2,3,2,0,0,2,3,0,3,2,0,2,0,0,3,0,0,0,0,0,0,0,0,0,0,0,0],"split_type":[0,0,0,0,0,0,0,0,0,0,0,0,0,0,0,0,0,0,0,0,0,0,0,0,0,0,0],"sum_hessian":[2.6957307E3,4.328385E1,2.652447E3,3.519816E1,8.085694E0,1.6229846E3,1.0294623E3,3.0976679E1,4.221479E0,4.3149133E0,3.7707808E0,6.3891468E1,1.5590931E3,1.2369386E0,1.0282253E3,3.062324E0,2.7914356E1,1.139739E0,3.0817397E0,2.2672582E0,2.0476553E0,3.1951593E1,3.1939875E1,1.1482347E3,4.1085834E2,1.4871947E2,8.795059E2],"tree_param":{"num_deleted":"0","num_feature":"5","num_nodes":"27","size_leaf_vector":"1"}},{"base_weights":[-8.957282E-1,-1.8617828E-1,-9.248651E-1,1.8599339E-1,-4.338678E-1,-8.557409E-1,-1.0290438E0,2.9534978E-1,-7.18589E-1,-8.6634994E-1,-2.580165E-1,-7.6611793E-1,-8.995346E-1,-1.361807E-3,-1.0298922E0,4.813379E-3,-3.7126236E-3,-1.4453977E-3,-8.509616E-3,-1.9086477E-3,-9.045094E-3,-5.8471994E-3,5.7644106E-4,-6.0144775E-3,-8.70226E-3,3.217526E-3,-9.0118665E-3,-1.0307023E-2,-2.7676856E-3],"categories":[],"categories_nodes":[],"categories_segments":[],"categories_sizes":[],"default_left":[0,0,0,0,0,0,0,0,0,0,0,0,0,0,0,0,0,0,0,0,0,0,0,0,0,0,0,0,0],"id":3,"left_children":[1,3,5,7,9,11,13,15,17,19,21,23,25,-1,27,-1,-1,-1,-1,-1,-1,-1,-1,-1,-1,-1,-1,-1,-1],"loss_changes":[5.52666E1,9.946491E0,1.7666504E1,4.5119257E0,4.686304E0,5.4108887E0,6.341553E-1,5.074297E0,2.5536203E-1,2.9746246E-1,4.9137616E0,8.338043E0,2.3850098E0,0E0,3.3776855E-1,0E0,0E0,0E0,0E0,0E0,0E0,0E0,0E0,0E0,0E0,0E0,0E0,0E0,0E0],"parents":[2147483647,0,0,1,1,2,2,3,3,4,4,5,5,6,6,7,7,8,8,9,9,10,10,11,11,12,12,14,14],"right_children":[2,4,6,8,10,12,14,16,18,20,22,24,26,-1,28,-1,-1,-1,-1,-1,-1,-1,-1,-1,-1,-1,-1,-1,-1],"split_conditions":[1.774514E1,1.6200308E1,2.5730915E1,2.1820988E1,2.047071E1,2.1023796E1,2.42E1,2.4229734E1,-1.56E1,-1.74E1,1.7173235E1,-1.86E1,6.384685E0,-1.361807E-3,-1.09E1,4.813379E-3,-3.7126236E-3,-1.4453977E-3,-8.509616E-3,-1.9086477E-3,-9.045094E-3,-5.8471994E-3,5.7644106E-4,-6.0144775E-3,-8.70226E-3,3.217526E-3,-9.0118665E-3,-1.0307023E-2,-2.7676856E-3],"split_indices":[2,2,2,0,3,2,3,3,4,4,2,4,0,0,4,0,0,0,0,0,0,0,0,0,0,0,0,0,0],"split_type":[0,0,0,0,0,0,0,0,0,0,0,0,0,0,0,0,0,0,0,0,0,0,0,0,0,0,0,0,0],"sum_hessian":[2.6805525E3,1.06023994E2,2.5745286E3,4.2465523E1,6.355847E1,1.5531812E3,1.0213473E3,3.8486343E1,3.9791784E0,1.7237818E1,4.6320652E1,5.158986E2,1.0372826E3,1.1229229E0,1.02022437E3,3.030815E1,8.178193E0,1.1376299E0,2.8415484E0,1.2426516E0,1.5995167E1,2.234332E1,2.3977331E1,2.0245235E2,3.134463E2,1.139563E0,1.036143E3,1.01875995E3,1.4644275E0],"tree_param":{"num_deleted":"0","num_feature":"5","num_nodes":"29","size_leaf_vector":"1"}},{"base_weights":[-8.943807E-1,-1.9783516E-1,-9.226451E-1,1.5473033E-1,-4.3421882E-1,-8.501153E-1,-1.0306724E0,3.0242872E-1,-4.5190173E-1,-5.7483274E-1,1.3236809E-1,-7.62766E-1,-8.9208865E-1,-1.8636342E-3,-1.0315088E-2,1.0721528E-2,6.7367114E-4,6.101624E-4,-9.067224E-3,-8.617175E-3,-4.050848E-3,-8.351772E-3,4.5249257E-3,-4.866076E-3,-8.226028E-3,-8.937257E-3,2.685368E-3],"categories":[],"categories_nodes":[],"categories_segments":[],"categories_sizes":[],"default_left":[0,0,0,0,0,0,0,0,0,0,0,0,0,0,0,0,0,0,0,0,0,0,0,0,0,0,0],"id":4,"left_children":[1,3,5,7,9,11,13,15,17,19,21,23,25,-1,-1,-1,-1,-1,-1,-1,-1,-1,-1,-1,-1,-1,-1],"loss_changes":[5.228955E1,8.835148E0,1.9190186E1,3.9861257E0,5.114643E0,4.958374E0,5.307617E-1,6.2875896E0,2.1113143E0,2.127489E0,4.5244894E0,7.962219E0,2.2026978E0,0E0,0E0,0E0,0E0,0E0,0E0,0E0,0E0,0E0,0E0,0E0,0E0,0E0,0E0],"parents":[2147483647,0,0,1,1,2,2,3,3,4,4,5,5,6,6,7,7,8,8,9,9,10,10,11,11,12,12],"right_children":[2,4,6,8,10,12,14,16,18,20,22,24,26,-1,-1,-1,-1,-1,-1,-1,-1,-1,-1,-1,-1,-1,-1],"split_conditions":[1.774514E1,1.6200308E1,2.5730915E1,2.4229734E1,2.1973848E1,2.1023796E1,2.42E1,1.0049875E1,1.4582942E1,2.047071E1,1.6885794E1,-1.96E1,2.055844E1,-1.8636342E-3,-1.0315088E-2,1.0721528E-2,6.7367114E-4,6.101624E-4,-9.067224E-3,-8.617175E-3,-4.050848E-3,-8.351772E-3,4.5249257E-3,-4.866076E-3,-8.226028E-3,-8.937257E-3,2.685368E-3],"split_indices":[2,2,2,3,3,2,3,2,0,3,2,4,0,0,0,0,0,0,0,0,0,0,0,0,0,0,0],"split_type":[0,0,0,0,0,0,0,0,0,0,0,0,0,0,0,0,0,0,0,0,0,0,0,0,0,0,0],"sum_hessian":[2.6642507E3,1.0420621E2,2.5600447E3,4.1963383E1,6.2242825E1,1.5369814E3,1.0230632E3,3.41502E1,7.813181E0,4.9855324E1,1.2387502E1,5.0506958E2,1.0319119E3,1.2339671E0,1.0218292E3,7.156062E0,2.6994139E1,4.0789948E0,3.7341862E0,1.7017761E1,3.2837563E1,2.6796389E0,9.707863E0,9.157331E1,4.1349628E2,1.030688E3,1.2239046E0],"tree_param":{"num_deleted":"0","num_feature":"5","num_nodes":"27","size_leaf_vector":"1"}},{"base_weights":[-8.9529985E-1,-2.2948897E-1,-9.23132E-1,1.5540971E-1,-4.844351E-1,-8.534598E-1,-1.0278509E0,4.2963198E-1,-2.3418233E-1,-9.216029E-1,-3.046926E-1,-7.6653177E-1,-8.9551157E-1,-1.0287083E0,-1.3283682E-3,1.4492929E-2,2.388931E-3,-8.146717E-3,6.150182E-4,-3.995195E-3,-1.0055231E-2,-5.6560165E-3,-6.568812E-4,-6.049338E-3,-8.703962E-3,-8.968669E-3,-2.3067498E-3,-2.3144817E-3,-1.0295404E-2],"categories":[],"categories_nodes":[],"categories_segments":[],"categories_sizes":[],"default_left":[0,0,0,0,0,0,0,0,0,0,0,0,0,0,0,0,0,0,0,0,0,0,0,0,0,0,0,0,0],"id":5,"left_children":[1,3,5,7,9,11,13,15,17,19,21,23,25,27,-1,-1,-1,-1,-1,-1,-1,-1,-1,-1,-1,-1,-1,-1,-1],"loss_changes":[4.8945312E1,1.0650557E1,1.7698242E1,4.7690735E0,4.8323793E0,4.923462E0,6.401367E-1,4.710307E0,3.259607E0,4.073038E-1,2.9315076E0,7.9881897E0,7.1984863E-1,4.3249512E-1,0E0,0E0,0E0,0E0,0E0,0E0,0E0,0E0,0E0,0E0,0E0,0E0,0E0,0E0,0E0],"parents":[2147483647,0,0,1,1,2,2,3,3,4,4,5,5,6,6,7,7,8,8,9,9,10,10,11,11,12,12,13,13],"right_children":[2,4,6,8,10,12,14,16,18,20,22,24,26,28,-1,-1,-1,-1,-1,-1,-1,-1,-1,-1,-1,-1,-1,-1,-1],"split_conditions":[1.774514E1,1.6200308E1,2.5730915E1,2.1613422E1,2.047071E1,2.1023796E1,-1.09E1,3.05E1,-1.31E1,1.6555965E1,1.7173235E1,-1.86E1,6.29E1,2.42E1,-1.3283682E-3,1.4492929E-2,2.388931E-3,-8.146717E-3,6.150182E-4,-3.995195E-3,-1.0055231E-2,-5.6560165E-3,-6.568812E-4,-6.049338E-3,-8.703962E-3,-8.968669E-3,-2.3067498E-3,-2.3144817E-3,-1.0295404E-2],"split_indices":[2,2,2,3,3,2,4,1,4,2,2,4,1,3,0,0,0,0,0,0,0,0,0,0,0,0,0,0,0],"split_type":[0,0,0,0,0,0,0,0,0,0,0,0,0,0,0,0,0,0,0,0,0,0,0,0,0,0,0,0,0],"sum_hessian":[2.651708E3,1.067697E2,2.5449385E3,4.2697945E1,6.4071754E1,1.5336866E3,1.0112517E3,2.499907E1,1.7698875E1,1.7465355E1,4.66064E1,5.063032E2,1.0273835E3,1.01013464E3,1.1170671E0,2.8996534E0,2.2099417E1,5.380543E0,1.2318333E1,3.216377E0,1.4248978E1,2.1628822E1,2.4977577E1,2.0076555E2,3.0553763E2,1.024945E3,2.438498E0,1.344284E0,1.00879034E3],"tree_param":{"num_deleted":"0","num_feature":"5","num_nodes":"29","size_leaf_vector":"1"}},{"base_weights":[-8.8813865E-1,-9.5686084E-1,-7.139552E-1,-8.8908863E-1,-1.0241268E0,-7.5194347E-1,1.5572883E-1,-8.939258E-1,-4.796647E-2,-1.0288048E0,-1.2792775E-1,-7.76383E-1,-5.6321394E-1,-9.1003604E-2,8.4872746E-1,3.3342864E-3,-8.957452E-3,-5.20813E-3,3.5947543E-3,-1.0324219E-2,-7.497588E-3,4.3066717E-3,-7.817193E-3,5.087541E-4,-7.8079733E-3,-6.6308277E-3,-9.4815716E-4,-3.626777E-3,2.509426E-3,1.5256505E-2,1.702686E-3],"categories":[],"categories_nodes":[],"categories_segments":[],"categories_sizes":[],"default_left":[0,0,0,0,0,0,0,0,0,0,0,0,0,0,0,0,0,0,0,0,0,0,0,0,0,0,0,0,0,0,0],"id":6,"left_children":[1,3,5,7,9,11,13,15,17,19,21,23,25,27,29,-1,-1,-1,-1,-1,-1,-1,-1,-1,-1,-1,-1,-1,-1,-1,-1],"loss_changes":[3.090039E1,7.701416E0,2.4909332E1,3.8165894E0,3.8156128E0,2.8799744E0,5.589006E0,2.404663E0,1.4357747E0,1.7114258E-1,2.5392232E0,2.3552856E0,3.96455E0,2.3832595E0,3.6717339E0,0E0,0E0,0E0,0E0,0E0,0E0,0E0,0E0,0E0,0E0,0E0,0E0,0E0,0E0,0E0,0E0],"parents":[2147483647,0,0,1,1,2,2,3,3,4,4,5,5,6,6,7,7,8,8,9,9,10,10,11,11,12,12,13,13,14,14],"right_children":[2,4,6,8,10,12,14,16,18,20,22,24,26,28,30,-1,-1,-1,-1,-1,-1,-1,-1,-1,-1,-1,-1,-1,-1,-1,-1],"split_conditions":[1.7002056E1,2.7475807E1,-1.54E1,-7.2E0,-1.4E1,-1.73E1,-1.23E1,6.384685E0,2.2047676E1,-1.97E1,-9.7E0,2.0048191E1,2.0990095E1,2.0706762E1,3.77E1,3.3342864E-3,-8.957452E-3,-5.20813E-3,3.5947543E-3,-1.0324219E-2,-7.497588E-3,4.3066717E-3,-7.817193E-3,5.087541E-4,-7.8079733E-3,-6.6308277E-3,-9.4815716E-4,-3.626777E-3,2.509426E-3,1.5256505E-2,1.702686E-3],"split_indices":[0,3,4,4,4,4,4,0,3,4,4,3,0,3,1,0,0,0,0,0,0,0,0,0,0,0,0,0,0,0,0],"split_type":[0,0,0,0,0,0,0,0,0,0,0,0,0,0,0,0,0,0,0,0,0,0,0,0,0,0,0,0,0,0,0],"sum_hessian":[2.6375178E3,1.8880963E3,7.494216E2,9.4759015E2,9.4050616E2,7.181862E2,3.1235348E1,9.4210944E2,5.480699E0,9.354751E2,5.0310354E0,6.330905E2,8.5095726E1,2.367491E1,7.5604377E0,1.1247294E0,9.409847E2,2.4079552E0,3.0727437E0,9.20839E2,1.4636142E1,2.8970737E0,2.1339617E0,3.3044693E0,6.297861E2,6.979817E1,1.5297554E1,1.3159301E1,1.0515609E1,3.1594443E0,4.4009933E0],"tree_param":{"num_deleted":"0","num_feature":"5","num_nodes":"31","size_leaf_vector":"1"}},{"base_weights":[-8.8326657E-1,-9.5023483E-1,-7.1278E-1,-8.8278866E-1,-1.0186098E0,-7.384802E-1,8.1727666E-1,-8.8955086E-1,1.6857785E-1,-1.0222479E0,-2.940754E-1,-7.7989507E-1,-4.6469566E-1,1.0532326E0,-6.6418E-3,7.040702E-3,-8.923821E-3,-3.503835E-3,1.0894658E-2,-1.0239764E-2,-4.3873694E-3,2.076935E-3,-7.923953E-3,2.07208E-4,-7.842655E-3,-6.5177768E-3,-2.8923245E-3,1.5574427E-2,-3.1986993E-4],"categories":[],"categories_nodes":[],"categories_segments":[],"categories_sizes":[],"default_left":[0,0,0,0,0,0,0,0,0,0,0,0,0,0,0,0,0,0,0,0,0,0,0,0,0,0,0,0,0],"id":7,"left_children":[1,3,5,7,9,11,13,15,17,19,21,23,25,27,-1,-1,-1,-1,-1,-1,-1,-1,-1,-1,-1,-1,-1,-1,-1],"loss_changes":[2.9247803E1,7.765259E0,2.982843E1,6.9278564E0,2.1416016E0,7.931366E0,5.1571074E0,4.903015E0,3.69518E0,4.802246E-1,1.6730657E0,2.234192E0,3.047533E0,6.2803974E0,0E0,0E0,0E0,0E0,0E0,0E0,0E0,0E0,0E0,0E0,0E0,0E0,0E0,0E0,0E0],"parents":[2147483647,0,0,1,1,2,2,3,3,4,4,5,5,6,6,7,7,8,8,9,9,10,10,11,11,12,12,13,13],"right_children":[2,4,6,8,10,12,14,16,18,20,22,24,26,28,-1,-1,-1,-1,-1,-1,-1,-1,-1,-1,-1,-1,-1,-1,-1],"split_conditions":[1.7002056E1,2.7530529E1,-1.37E1,-7.2E0,-1.42E1,-1.72E1,2.1616901E1,6.384685E0,1.4363743E1,1.6409397E1,-9.7E0,2.0048191E1,2.0681393E1,4.5E1,-6.6418E-3,7.040702E-3,-8.923821E-3,-3.503835E-3,1.0894658E-2,-1.0239764E-2,-4.3873694E-3,2.076935E-3,-7.923953E-3,2.07208E-4,-7.842655E-3,-6.5177768E-3,-2.8923245E-3,1.5574427E-2,-3.1986993E-4],"split_indices":[0,3,4,4,4,4,0,0,0,0,4,3,3,1,0,0,0,0,0,0,0,0,0,0,0,0,0,0,0],"split_type":[0,0,0,0,0,0,0,0,0,0,0,0,0,0,0,0,0,0,0,0,0,0,0,0,0,0,0,0,0],"sum_hessian":[2.6200564E3,1.877851E3,7.4220544E2,9.5234924E2,9.255018E2,7.304534E2,1.1752006E1,9.4641595E2,5.933275E0,9.204688E2,5.0329614E0,6.328716E2,9.758188E1,1.0386736E1,1.3652691E0,1.23922E0,9.4517676E2,4.1909847E0,1.7422907E0,9.1699756E2,3.4712114E0,2.798403E0,2.2345586E0,3.415711E0,6.294559E2,4.5913483E1,5.16684E1,6.794679E0,3.5920572E0],"tree_param":{"num_deleted":"0","num_feature":"5","num_nodes":"29","size_leaf_vector":"1"}},{"base_weights":[-8.795651E-1,-2.0319964E-1,-9.0759605E-1,1.7878175E-1,-4.680469E-1,-8.35764E-1,-1.0160792E0,-4.962407E-1,3.1861186E-1,-1.03968754E-1,-5.496156E-1,-7.5916976E-1,-8.730529E-1,-1.0169146E-2,-2.2600596E-3,2.486613E-3,-6.7421976E-3,2.8206915E-2,1.6613397E-3,8.219449E-3,-4.967451E-3,-3.5631743E-3,-7.791759E-3,-5.48599E-3,-8.22929E-3,2.5345015E-3,-8.746962E-3],"categories":[],"categories_nodes":[],"categories_segments":[],"categories_sizes":[],"default_left":[0,0,0,0,0,0,0,0,0,0,0,0,0,0,0,0,0,0,0,0,0,0,0,0,0,0,0],"id":8,"left_children":[1,3,5,7,9,11,13,15,17,19,21,23,25,-1,-1,-1,-1,-1,-1,-1,-1,-1,-1,-1,-1,-1,-1],"loss_changes":[4.9186523E1,1.0697636E1,1.8633545E1,4.281164E0,1.7910347E0,3.649414E0,4.2443848E-1,1.2132704E0,1.3569079E1,4.9994316E0,1.96809E0,6.2886353E0,2.0892944E0,0E0,0E0,0E0,0E0,0E0,0E0,0E0,0E0,0E0,0E0,0E0,0E0,0E0,0E0],"parents":[2147483647,0,0,1,1,2,2,3,3,4,4,5,5,6,6,7,7,8,8,9,9,10,10,11,11,12,12],"right_children":[2,4,6,8,10,12,14,16,18,20,22,24,26,-1,-1,-1,-1,-1,-1,-1,-1,-1,-1,-1,-1,-1,-1],"split_conditions":[1.774514E1,1.6200308E1,2.5730915E1,1.4393652E1,1.7524199E1,2.1023796E1,-1.09E1,-1.09E1,1.4893442E1,-1.5E1,-1.64E1,-1.93E1,6.384685E0,-1.0169146E-2,-2.2600596E-3,2.486613E-3,-6.7421976E-3,2.8206915E-2,1.6613397E-3,8.219449E-3,-4.967451E-3,-3.5631743E-3,-7.791759E-3,-5.48599E-3,-8.22929E-3,2.5345015E-3,-8.746962E-3],"split_indices":[2,2,2,0,0,2,4,4,0,4,4,4,0,0,0,0,0,0,0,0,0,0,0,0,0,0,0],"split_type":[0,0,0,0,0,0,0,0,0,0,0,0,0,0,0,0,0,0,0,0,0,0,0,0,0,0,0],"sum_hessian":[2.6030732E3,1.0391549E2,2.4991577E3,4.2681778E1,6.123371E1,1.5088066E3,9.903511E2,6.886875E0,3.5794903E1,1.1624209E1,4.9609505E1,5.0102417E2,1.0077825E3,9.8901825E2,1.3328282E0,1.251556E0,5.635319E0,1.0509166E0,3.4743988E1,3.1368601E0,8.4873495E0,2.8317398E1,2.1292107E1,1.1867932E2,3.8234485E2,1.2448554E0,1.00653766E3],"tree_param":{"num_deleted":"0","num_feature":"5","num_nodes":"27","size_leaf_vector":"1"}},{"base_weights":[-8.783021E-1,-1.6695409E-1,-9.0906787E-1,2.2850356E-1,-4.414762E-1,-8.3874995E-1,-1.0153197E0,3.7739545E-1,-3.8168943E-1,-5.9432465E-1,1.4814994E-1,-7.616107E-1,-8.7652194E-1,-1.7101781E-3,-1.0161839E0,-7.825431E-4,7.680613E-3,-6.1281207E-3,4.6112514E-3,-8.586134E-3,-4.362754E-3,-8.685724E-3,5.2512465E-3,-6.2738857E-3,-8.489921E-3,-8.787825E-3,-6.254619E-4,-1.0170306E-2,-2.2493214E-3],"categories":[],"categories_nodes":[],"categories_segments":[],"categories_sizes":[],"default_left":[0,0,0,0,0,0,0,0,0,0,0,0,0,0,0,0,0,0,0,0,0,0,0,0,0,0,0,0,0],"id":9,"left_children":[1,3,5,7,9,11,13,15,17,19,21,23,25,-1,27,-1,-1,-1,-1,-1,-1,-1,-1,-1,-1,-1,-1,-1,-1],"loss_changes":[5.6324585E1,1.1848159E1,1.7628052E1,4.2321415E0,5.8749914E0,3.685791E0,5.414429E-1,6.588279E0,2.0986745E0,1.763731E0,5.829379E0,5.3169556E0,1.7782593E0,0E0,4.272461E-1,0E0,0E0,0E0,0E0,0E0,0E0,0E0,0E0,0E0,0E0,0E0,0E0,0E0,0E0],"parents":[2147483647,0,0,1,1,2,2,3,3,4,4,5,5,6,6,7,7,8,8,9,9,10,10,11,11,12,12,14,14],"right_children":[2,4,6,8,10,12,14,16,18,20,22,24,26,-1,28,-1,-1,-1,-1,-1,-1,-1,-1,-1,-1,-1,-1,-1,-1],"split_conditions":[1.774514E1,1.6200308E1,2.5730915E1,2.4229734E1,2.1973848E1,2.1023796E1,2.42E1,-1.37E1,3.0519667E1,2.047071E1,1.6885794E1,-1.86E1,6.29E1,-1.7101781E-3,-1.09E1,-7.825431E-4,7.680613E-3,-6.1281207E-3,4.6112514E-3,-8.586134E-3,-4.362754E-3,-8.685724E-3,5.2512465E-3,-6.2738857E-3,-8.489921E-3,-8.787825E-3,-6.254619E-4,-1.0170306E-2,-2.2493214E-3],"split_indices":[2,2,2,3,3,2,3,4,3,3,2,4,1,0,4,0,0,0,0,0,0,0,0,0,0,0,0,0,0],"split_type":[0,0,0,0,0,0,0,0,0,0,0,0,0,0,0,0,0,0,0,0,0,0,0,0,0,0,0,0,0],"sum_hessian":[2.579584E3,1.0720817E2,2.472376E3,4.3996895E1,6.3211273E1,1.4931179E3,9.79258E2,3.5673737E1,8.323158E0,5.0192043E1,1.3019227E1,4.977529E2,9.95365E2,1.2046504E0,9.7805334E2,1.6836418E1,1.883732E1,6.746094E0,1.5770645E0,1.7124321E1,3.3067722E1,3.1687818E0,9.850446E0,1.9949654E2,2.9825638E2,9.925291E2,2.835933E0,9.767227E2,1.3305838E0],"tree_param":{"num_deleted":"0","num_feature":"5","num_nodes":"29","size_leaf_vector":"1"}},{"base_weights":[-8.797232E-1,-2.0290193E-1,-9.085845E-1,1.0112976E-1,-4.118391E-1,-8.375792E-1,-1.0166386E0,-5.7688904E-1,2.6797688E-1,-5.5074537E-1,1.5653896E-1,-7.495615E-1,-8.76025E-1,-2.1620663E-3,-1.0175007E-2,-7.312405E-3,1.2984887E-3,2.365203E-2,1.2022669E-3,-8.505618E-3,-3.7943758E-3,-8.342201E-3,4.9401615E-3,-8.53583E-3,-6.2724273E-3,-8.77635E-3,2.240792E-3],"categories":[],"categories_nodes":[],"categories_segments":[],"categories_sizes":[],"default_left":[0,0,0,0,0,0,0,0,0,0,0,0,0,0,0,0,0,0,0,0,0,0,0,0,0,0,0],"id":10,"left_children":[1,3,5,7,9,11,13,15,17,19,21,23,25,-1,-1,-1,-1,-1,-1,-1,-1,-1,-1,-1,-1,-1,-1],"loss_changes":[4.9832764E1,6.7757072E0,1.7988037E1,5.1299977E0,5.0623207E0,4.376953E0,4.4873047E-1,1.0770271E0,1.0864147E1,2.2900286E0,4.8112416E0,5.3064575E0,2.0197754E0,0E0,0E0,0E0,0E0,0E0,0E0,0E0,0E0,0E0,0E0,0E0,0E0,0E0,0E0],"parents":[2147483647,0,0,1,1,2,2,3,3,4,4,5,5,6,6,7,7,8,8,9,9,10,10,11,11,12,12],"right_children":[2,4,6,8,10,12,14,16,18,20,22,24,26,-1,-1,-1,-1,-1,-1,-1,-1,-1,-1,-1,-1,-1,-1],"split_conditions":[1.774514E1,1.6200308E1,2.5730915E1,1.4393652E1,2.1973848E1,2.0825464E1,2.42E1,3.0519667E1,1.4893442E1,2.047071E1,1.6885794E1,2.15E1,2.0854458E1,-2.1620663E-3,-1.0175007E-2,-7.312405E-3,1.2984887E-3,2.365203E-2,1.2022669E-3,-8.505618E-3,-3.7943758E-3,-8.342201E-3,4.9401615E-3,-8.53583E-3,-6.2724273E-3,-8.77635E-3,2.240792E-3],"split_indices":[2,2,2,0,3,2,3,3,0,3,2,3,0,0,0,0,0,0,0,0,0,0,0,0,0,0,0],"split_type":[0,0,0,0,0,0,0,0,0,0,0,0,0,0,0,0,0,0,0,0,0,0,0,0,0,0,0],"sum_hessian":[2.5595217E3,1.0500887E2,2.4545127E3,4.298129E1,6.202758E1,1.4864669E3,9.6804584E2,8.002764E0,3.4978527E1,4.9870678E1,1.2156901E1,4.581278E2,1.0283391E3,1.3124802E0,9.667334E2,6.5398016E0,1.4629619E0,1.3143259E0,3.36642E1,1.6691944E1,3.3178734E1,2.7148287E0,9.442073E0,2.4435048E2,2.1377731E2,1.0270383E3,1.3008057E0],"tree_param":{"num_deleted":"0","num_feature":"5","num_nodes":"27","size_leaf_vector":"1"}},{"base_weights":[-8.717272E-1,2.224998E-1,-8.904773E-1,3.5041422E-1,-3.2978383E-1,-7.0374143E-1,-9.4269955E-1,1.081414E0,1.331471E-1,-5.9346676E-1,6.944337E-3,-7.5114286E-1,-4.5460534E-1,-8.738857E-1,-1.0119851E0,1.7900744E-2,1.6812203E-3,3.3762716E-3,-5.5740606E-3,-9.249804E-3,9.5855154E-4,-5.246829E-3,-7.8099845E-3,-2.805359E-3,-6.8859034E-3,-4.056277E-3,-8.756912E-3,-1.1605101E-3,-1.0128734E-2],"categories":[],"categories_nodes":[],"categories_segments":[],"categories_sizes":[],"default_left":[0,0,0,0,0,0,0,0,0,0,0,0,0,0,0,0,0,0,0,0,0,0,0,0,0,0,0,0,0],"id":11,"left_children":[1,3,5,7,9,11,13,15,17,19,-1,21,23,25,27,-1,-1,-1,-1,-1,-1,-1,-1,-1,-1,-1,-1,-1,-1],"loss_changes":[5.2470337E1,3.2042873E0,2.3765259E1,5.571153E0,2.7717805E0,6.170227E0,8.434937E0,4.944311E0,4.266198E0,1.7997265E0,0E0,2.7120056E0,3.499958E0,4.7998047E-1,6.526489E-1,0E0,0E0,0E0,0E0,0E0,0E0,0E0,0E0,0E0,0E0,0E0,0E0,0E0,0E0],"parents":[2147483647,0,0,1,1,2,2,3,3,4,4,5,5,6,6,7,7,8,8,9,9,11,11,12,12,13,13,14,14],"right_children":[2,4,6,8,10,12,14,16,18,20,-1,22,24,26,28,-1,-1,-1,-1,-1,-1,-1,-1,-1,-1,-1,-1,-1,-1],"split_conditions":[1.6200308E1,2.4229734E1,2.1023796E1,1.0049875E1,3.0519667E1,2.3093288E1,2.5730915E1,3.77E1,2.18E1,5.04E1,6.944337E-3,1.774514E1,4.19E1,-2.55E1,2.429856E1,1.7900744E-2,1.6812203E-3,3.3762716E-3,-5.5740606E-3,-9.249804E-3,9.5855154E-4,-5.246829E-3,-7.8099845E-3,-2.805359E-3,-6.8859034E-3,-4.056277E-3,-8.756912E-3,-1.1605101E-3,-1.0128734E-2],"split_indices":[2,3,2,2,3,3,2,1,3,1,0,2,1,4,3,0,0,0,0,0,0,0,0,0,0,0,0,0,0],"split_type":[0,0,0,0,0,0,0,0,0,0,0,0,0,0,0,0,0,0,0,0,0,0,0,0,0,0,0,0,0],"sum_hessian":[2.5467666E3,4.2721767E1,2.504045E3,3.498452E1,7.737248E0,5.5040106E2,1.9536437E3,7.104371E0,2.788015E1,6.4875946E0,1.2496536E0,4.607267E2,8.967436E1,9.8698773E2,9.66656E2,3.4597697E0,3.6446013E0,2.1904943E1,5.9752073E0,4.1499166E0,2.3376777E0,5.5828884E1,4.0489783E2,5.268164E1,3.6992725E1,4.6577415E0,9.8233E2,1.0879502E0,9.6556805E2],"tree_param":{"num_deleted":"0","num_feature":"5","num_nodes":"29","size_leaf_vector":"1"}},{"base_weights":[-8.684759E-1,-1.501835E-1,-8.996885E-1,1.7789015E-1,-3.790243E-1,-8.258282E-1,-1.0122095E0,3.3295736E-1,-4.6651524E-1,-8.476513E-1,-1.9290093E-1,-7.3069024E-1,-8.721424E-1,-2.1462648E-3,-1.0130788E-2,5.026669E-3,-3.5867298E-3,-7.295895E-3,5.2326424E-3,-3.883099E-3,-9.760279E-3,-5.1735733E-3,1.1151632E-3,-7.84308E-3,-4.69281E-3,2.666758E-3,-8.738382E-3],"categories":[],"categories_nodes":[],"categories_segments":[],"categories_sizes":[],"default_left":[0,0,0,0,0,0,0,0,0,0,0,0,0,0,0,0,0,0,0,0,0,0,0,0,0,0,0],"id":12,"left_children":[1,3,5,7,9,11,13,15,17,19,21,23,25,-1,-1,-1,-1,-1,-1,-1,-1,-1,-1,-1,-1,-1,-1],"loss_changes":[5.6540405E1,8.061144E0,1.9296875E1,4.5952168E0,5.3352013E0,5.8306885E0,4.451294E-1,4.4524555E0,2.7342274E0,6.603937E-1,4.6422315E0,6.4548035E0,2.1296387E0,0E0,0E0,0E0,0E0,0E0,0E0,0E0,0E0,0E0,0E0,0E0,0E0,0E0,0E0],"parents":[2147483647,0,0,1,1,2,2,3,3,4,4,5,5,6,6,7,7,8,8,9,9,10,10,11,11,12,12],"right_children":[2,4,6,8,10,12,14,16,18,20,22,24,26,-1,-1,-1,-1,-1,-1,-1,-1,-1,-1,-1,-1,-1,-1],"split_conditions":[1.774514E1,1.6200308E1,2.5730915E1,2.4229734E1,2.047071E1,2.1023796E1,2.42E1,2.1478792E1,3.0519667E1,3.81E1,1.7173235E1,2.3093288E1,6.384685E0,-2.1462648E-3,-1.0130788E-2,5.026669E-3,-3.5867298E-3,-7.295895E-3,5.2326424E-3,-3.883099E-3,-9.760279E-3,-5.1735733E-3,1.1151632E-3,-7.84308E-3,-4.69281E-3,2.666758E-3,-8.738382E-3],"split_indices":[2,2,2,3,3,2,3,0,3,1,2,3,0,0,0,0,0,0,0,0,0,0,0,0,0,0,0],"split_type":[0,0,0,0,0,0,0,0,0,0,0,0,0,0,0,0,0,0,0,0,0,0,0,0,0,0,0],"sum_hessian":[2.5269292E3,1.0547413E2,2.421455E3,4.3431686E1,6.2042442E1,1.466901E3,9.545541E2,3.5397163E1,8.034526E0,1.6626215E1,4.541623E1,4.8578516E2,9.8111584E2,1.3092119E0,9.532449E2,2.8642254E1,6.754908E0,6.5551133E0,1.4794122E0,4.510842E0,1.2115373E1,2.164591E1,2.3770319E1,4.0144437E2,8.434078E1,1.2264577E0,9.798894E2],"tree_param":{"num_deleted":"0","num_feature":"5","num_nodes":"27","size_leaf_vector":"1"}},{"base_weights":[-8.682372E-1,-9.3529326E-1,-6.9838804E-1,-8.603445E-1,-1.0111784E0,-7.3936754E-1,2.9978904E-1,-8.6723804E-1,1.6586505E-1,-1.0149332E0,-2.949001E-1,-7.649228E-1,-5.5412E-1,-5.1855195E-2,9.0275383E-1,-8.7689385E-3,-6.783354E-3,5.0914143E-3,-6.7627756E-3,-1.0167596E-2,-3.95184E-3,2.266334E-3,-7.976641E-3,1.1376798E-3,-7.6965336E-3,-6.4334953E-3,-9.745211E-4,-2.383656E-3,1.2652066E-2,1.8702788E-2,5.21725E-4],"categories":[],"categories_nodes":[],"categories_segments":[],"categories_sizes":[],"default_left":[0,0,0,0,0,0,0,0,0,0,0,0,0,0,0,0,0,0,0,0,0,0,0,0,0,0,0,0,0,0,0],"id":13,"left_children":[1,3,5,7,9,11,13,15,17,19,21,23,25,27,29,-1,-1,-1,-1,-1,-1,-1,-1,-1,-1,-1,-1,-1,-1,-1,-1],"loss_changes":[2.806836E1,9.395996E0,2.9580597E1,6.6155396E0,2.0977783E0,2.8413696E0,6.1990023E0,1.0629883E0,2.351678E0,6.012573E-1,1.7690301E0,2.5960083E0,3.4922886E0,5.0359297E0,8.743231E0,0E0,0E0,0E0,0E0,0E0,0E0,0E0,0E0,0E0,0E0,0E0,0E0,0E0,0E0,0E0,0E0],"parents":[2147483647,0,0,1,1,2,2,3,3,4,4,5,5,6,6,7,7,8,8,9,9,10,10,11,11,12,12,13,13,14,14],"right_children":[2,4,6,8,10,12,14,16,18,20,22,24,26,28,30,-1,-1,-1,-1,-1,-1,-1,-1,-1,-1,-1,-1,-1,-1,-1,-1],"split_conditions":[1.7002056E1,2.7530529E1,-1.53E1,-7.2E0,-1.42E1,-1.73E1,-1.31E1,2.7252338E1,5.41E1,1.6409397E1,-9.7E0,2.0048191E1,2.19E1,5.13E1,3.84E1,-8.7689385E-3,-6.783354E-3,5.0914143E-3,-6.7627756E-3,-1.0167596E-2,-3.95184E-3,2.266334E-3,-7.976641E-3,1.1376798E-3,-7.6965336E-3,-6.4334953E-3,-9.745211E-4,-2.383656E-3,1.2652066E-2,1.8702788E-2,5.21725E-4],"split_indices":[0,3,4,4,4,4,4,3,1,0,4,3,3,1,1,0,0,0,0,0,0,0,0,0,0,0,0,0,0,0,0],"split_type":[0,0,0,0,0,0,0,0,0,0,0,0,0,0,0,0,0,0,0,0,0,0,0,0,0,0,0,0,0,0,0],"sum_hessian":[2.5207832E3,1.8040442E3,7.167391E2,9.1382855E2,8.9021564E2,6.887233E2,2.8015781E1,9.0788477E2,5.943765E0,8.851584E2,5.0572186E0,6.024807E2,8.624259E1,1.8273071E1,9.74271E0,8.602697E2,4.7615063E1,4.5034704E0,1.440295E0,8.8191876E2,3.239638E0,2.751855E0,2.3053637E0,3.1027517E0,5.99378E2,7.1803856E1,1.4438736E1,1.6723812E1,1.5492585E0,3.9971638E0,5.7455463E0],"tree_param":{"num_deleted":"0","num_feature":"5","num_nodes":"31","size_leaf_vector":"1"}},{"base_weights":[-8.64895E-1,-2.1349937E-1,-8.934721E-1,1.0691962E-1,-4.3767002E-1,-8.2486224E-1,-9.976437E-1,-3.9494193E-1,2.1371308E-1,-5.1607096E-1,4.0614015E-1,-7.367358E-1,-8.62666E-1,-1.1262156E-3,-9.985388E-1,-8.814987E-3,1.1291362E-3,1.6801488E-2,7.301042E-4,-8.465304E-3,-3.6171551E-3,1.133139E-2,-4.9871765E-3,-8.3985785E-3,-6.173105E-3,2.672748E-3,-8.64308E-3,-1.0001813E-2,-4.047466E-3],"categories":[],"categories_nodes":[],"categories_segments":[],"categories_sizes":[],"default_left":[0,0,0,0,0,0,0,0,0,0,0,0,0,0,0,0,0,0,0,0,0,0,0,0,0,0,0,0,0],"id":14,"left_children":[1,3,5,7,9,11,13,15,17,19,21,23,25,-1,27,-1,-1,-1,-1,-1,-1,-1,-1,-1,-1,-1,-1,-1,-1],"loss_changes":[4.6299316E1,7.680282E0,1.6274292E1,2.4720516E0,4.3591614E0,4.1885376E0,6.362915E-1,2.1177695E0,7.5903497E0,2.6437197E0,4.4410925E0,4.919342E0,2.1001587E0,0E0,5.159302E-1,0E0,0E0,0E0,0E0,0E0,0E0,0E0,0E0,0E0,0E0,0E0,0E0,0E0,0E0],"parents":[2147483647,0,0,1,1,2,2,3,3,4,4,5,5,6,6,7,7,8,8,9,9,10,10,11,11,12,12,14,14],"right_children":[2,4,6,8,10,12,14,16,18,20,22,24,26,-1,28,-1,-1,-1,-1,-1,-1,-1,-1,-1,-1,-1,-1,-1,-1],"split_conditions":[1.774514E1,1.6200308E1,2.5730915E1,1.4393652E1,2.3193102E1,2.0825464E1,2.42E1,2.2803509E1,1.5384679E1,2.047071E1,2.45204E1,2.15E1,6.384685E0,-1.1262156E-3,-1.4E1,-8.814987E-3,1.1291362E-3,1.6801488E-2,7.301042E-4,-8.465304E-3,-3.6171551E-3,1.133139E-2,-4.9871765E-3,-8.3985785E-3,-6.173105E-3,2.672748E-3,-8.64308E-3,-1.0001813E-2,-4.047466E-3],"split_indices":[2,2,2,0,3,2,3,3,0,3,3,3,0,0,4,0,0,0,0,0,0,0,0,0,0,0,0,0,0],"split_type":[0,0,0,0,0,0,0,0,0,0,0,0,0,0,0,0,0,0,0,0,0,0,0,0,0,0,0,0,0],"sum_hessian":[2.4964458E3,1.0527374E2,2.3911719E3,4.354937E1,6.1724377E1,1.4470374E3,9.441346E2,7.1676726E0,3.63817E1,5.6832317E1,4.8920574E0,4.405461E2,1.0064913E3,1.0820923E0,9.430525E2,3.284854E0,3.8828187E0,2.2272851E0,3.415441E1,1.6666574E1,4.0165745E1,2.5727353E0,2.3193223E0,2.331725E2,2.073736E2,1.2256387E0,1.0052656E3,9.3976855E2,3.283924E0],"tree_param":{"num_deleted":"0","num_feature":"5","num_nodes":"29","size_leaf_vector":"1"}},{"base_weights":[-8.6742455E-1,2.063623E-1,-8.868921E-1,2.9206595E-1,-5.2684146E-1,-8.137321E-1,-1.0027968E0,-7.18171E-2,5.718601E-1,-7.3913187E-3,-1.8238118E-3,-7.1774495E-1,-8.671602E-1,-1.0036772E-2,-2.0314232E-3,3.1896662E-3,-5.5859797E-3,2.4981763E-2,3.5080975E-3,-5.821795E-3,-7.886786E-3,-8.688688E-3,1.9042508E-3],"categories":[],"categories_nodes":[],"categories_segments":[],"categories_sizes":[],"default_left":[0,0,0,0,0,0,0,0,0,0,0,0,0,0,0,0,0,0,0,0,0,0,0],"id":15,"left_children":[1,3,5,7,9,11,13,15,17,-1,-1,19,21,-1,-1,-1,-1,-1,-1,-1,-1,-1,-1],"loss_changes":[5.2007812E1,2.9789534E0,1.983374E1,4.204809E0,2.3534214E-1,7.060974E0,4.5654297E-1,3.7287865E0,9.015669E0,0E0,0E0,4.748291E0,1.895935E0,0E0,0E0,0E0,0E0,0E0,0E0,0E0,0E0,0E0,0E0],"parents":[2147483647,0,0,1,1,2,2,3,3,4,4,5,5,6,6,7,7,8,8,11,11,12,12],"right_children":[2,4,6,8,10,12,14,16,18,-1,-1,20,22,-1,-1,-1,-1,-1,-1,-1,-1,-1,-1],"split_conditions":[1.6200308E1,2.1820988E1,2.5730915E1,1.7997194E1,4.03E1,2.1023796E1,-1.09E1,1.5384679E1,3.11E1,-7.3913187E-3,-1.8238118E-3,-1.86E1,2.055844E1,-1.0036772E-2,-2.0314232E-3,3.1896662E-3,-5.5859797E-3,2.4981763E-2,3.5080975E-3,-5.821795E-3,-7.886786E-3,-8.688688E-3,1.9042508E-3],"split_indices":[2,0,2,0,1,2,4,0,1,0,0,4,0,0,0,0,0,0,0,0,0,0,0],"split_type":[0,0,0,0,0,0,0,0,0,0,0,0,0,0,0,0,0,0,0,0,0,0,0],"sum_hessian":[2.478187E3,4.3957996E1,2.434229E3,3.9896214E1,4.061781E0,1.4972024E3,9.370267E2,1.7665228E1,2.2230988E1,1.8041297E0,2.257651E0,5.4053326E2,9.566691E2,9.357411E2,1.2855799E0,9.990045E0,7.675183E0,1.2280349E0,2.1002953E1,1.8883931E2,3.5169397E2,9.553042E2,1.3649278E0],"tree_param":{"num_deleted":"0","num_feature":"5","num_nodes":"23","size_leaf_vector":"1"}},{"base_weights":[-8.5727644E-1,-1.3432167E-1,-8.894339E-1,2.5821576E-1,-4.2198917E-1,-8.1814176E-1,-9.9867404E-1,3.4754634E-1,-5.247725E-1,-8.9810896E-1,-2.2815223E-1,-7.4443173E-1,-8.5426164E-1,-1.0731202E-3,-9.995928E-1,1.1088445E-2,1.60098E-3,-8.3147094E-4,-6.154286E-3,-1.4566611E-3,-9.426009E-3,-5.080166E-3,4.6855526E-4,-5.3378553E-3,-8.088002E-3,3.4641265E-3,-8.560235E-3,-1.0012236E-2,-4.6440545E-3],"categories":[],"categories_nodes":[],"categories_segments":[],"categories_sizes":[],"default_left":[0,0,0,0,0,0,0,0,0,0,0,0,0,0,0,0,0,0,0,0,0,0,0,0,0,0,0,0,0],"id":16,"left_children":[1,3,5,7,9,11,13,15,17,19,21,23,25,-1,27,-1,-1,-1,-1,-1,-1,-1,-1,-1,-1,-1,-1,-1,-1],"loss_changes":[5.705847E1,1.20691E1,1.752002E1,3.35885E0,5.471156E0,3.171875E0,6.5057373E-1,5.725408E0,1.5097368E-1,4.4701004E-1,3.4909818E0,6.051483E0,2.3128052E0,0E0,3.416748E-1,0E0,0E0,0E0,0E0,0E0,0E0,0E0,0E0,0E0,0E0,0E0,0E0,0E0,0E0],"parents":[2147483647,0,0,1,1,2,2,3,3,4,4,5,5,6,6,7,7,8,8,9,9,10,10,11,11,12,12,14,14],"right_children":[2,4,6,8,10,12,14,16,18,20,22,24,26,-1,28,-1,-1,-1,-1,-1,-1,-1,-1,-1,-1,-1,-1,-1,-1],"split_conditions":[1.774514E1,1.6200308E1,2.5730915E1,2.1820988E1,2.047071E1,2.1023796E1,2.42E1,2.03924E1,2.0125854E1,-1.74E1,1.7173235E1,-1.93E1,6.384685E0,-1.0731202E-3,-1.4E1,1.1088445E-2,1.60098E-3,-8.3147094E-4,-6.154286E-3,-1.4566611E-3,-9.426009E-3,-5.080166E-3,4.6855526E-4,-5.3378553E-3,-8.088002E-3,3.4641265E-3,-8.560235E-3,-1.0012236E-2,-4.6440545E-3],"split_indices":[2,2,2,0,3,2,3,3,3,4,2,4,0,0,4,0,0,0,0,0,0,0,0,0,0,0,0,0,0],"split_type":[0,0,0,0,0,0,0,0,0,0,0,0,0,0,0,0,0,0,0,0,0,0,0,0,0,0,0,0,0],"sum_hessian":[2.4584417E3,1.0491664E2,2.3535251E3,4.441391E1,6.050273E1,1.4292551E3,9.2426996E2,4.036484E1,4.049069E0,1.645389E1,4.4048843E1,4.7714767E2,9.521075E2,1.0730191E0,9.231969E2,7.003901E0,3.336094E1,1.0161467E0,3.0329223E0,1.1572133E0,1.5296676E1,2.1411716E1,2.2637127E1,1.1385362E2,3.6329404E2,1.1084158E0,9.50999E2,9.19524E2,3.6729527E0],"tree_param":{"num_deleted":"0","num_feature":"5","num_nodes":"29","size_leaf_vector":"1"}},{"base_weights":[-8.5582995E-1,-1.5130709E-1,-8.870948E-1,1.7584212E-1,-3.892498E-1,-8.144915E-1,-9.984593E-1,6.9948334E-1,2.056093E-2,-8.3789605E-1,-2.0839745E-1,-7.244079E-1,-8.5345244E-1,-9.9936324E-1,-1.5569652E-3,2.5361158E-2,2.9684117E-4,-5.8549987E-3,2.1728268E-3,-4.0986235E-3,-9.647837E-3,-4.924775E-3,5.6326954E-4,-4.280318E-3,-7.807476E-3,-8.55826E-3,1.1809001E-3,-1.9087187E-3,-1.0002608E-2],"categories":[],"categories_nodes":[],"categories_segments":[],"categories_sizes":[],"default_left":[0,0,0,0,0,0,0,0,0,0,0,0,0,0,0,0,0,0,0,0,0,0,0,0,0,0,0,0,0],"id":17,"left_children":[1,3,5,7,9,11,13,15,17,19,21,23,25,27,-1,-1,-1,-1,-1,-1,-1,-1,-1,-1,-1,-1,-1,-1,-1],"loss_changes":[5.4055664E1,8.299749E0,1.8231445E1,3.6620255E0,4.8177595E0,4.4051514E0,5.4919434E-1,1.26089115E1,4.407755E0,5.4666805E-1,3.4256296E0,6.9918823E0,2.392212E0,4.7961426E-1,0E0,0E0,0E0,0E0,0E0,0E0,0E0,0E0,0E0,0E0,0E0,0E0,0E0,0E0,0E0],"parents":[2147483647,0,0,1,1,2,2,3,3,4,4,5,5,6,6,7,7,8,8,9,9,10,10,11,11,12,12,13,13],"right_children":[2,4,6,8,10,12,14,16,18,20,22,24,26,28,-1,-1,-1,-1,-1,-1,-1,-1,-1,-1,-1,-1,-1,-1,-1],"split_conditions":[1.774514E1,1.6200308E1,2.5730915E1,2.03924E1,2.047071E1,2.0825464E1,-1.09E1,3.11E1,3.34E1,3.81E1,1.7173235E1,-1.96E1,6.29E1,2.4363293E1,-1.5569652E-3,2.5361158E-2,2.9684117E-4,-5.8549987E-3,2.1728268E-3,-4.0986235E-3,-9.647837E-3,-4.924775E-3,5.6326954E-4,-4.280318E-3,-7.807476E-3,-8.55826E-3,1.1809001E-3,-1.9087187E-3,-1.0002608E-2],"split_indices":[2,2,2,3,3,2,4,1,1,1,2,4,1,3,0,0,0,0,0,0,0,0,0,0,0,0,0,0,0],"split_type":[0,0,0,0,0,0,0,0,0,0,0,0,0,0,0,0,0,0,0,0,0,0,0,0,0,0,0,0,0],"sum_hessian":[2.4591785E3,1.04742676E2,2.3544358E3,4.421379E1,6.052889E1,1.4302854E3,9.2415045E2,9.3108835E0,3.490291E1,1.6345942E1,4.4182945E1,4.377453E2,9.9254016E2,9.229747E2,1.1757916E0,1.7435567E0,7.567327E0,8.068665E0,2.6834242E1,4.704898E0,1.1641043E1,2.0897335E1,2.3285612E1,7.1294846E1,3.6645044E2,9.9024E2,2.3001602E0,1.2605159E0,9.217141E2],"tree_param":{"num_deleted":"0","num_feature":"5","num_nodes":"29","size_leaf_vector":"1"}},{"base_weights":[-8.550237E-1,-9.24248E-1,-6.8206114E-1,-8.531159E-1,-9.9712974E-1,-7.1095866E-1,4.369283E-1,-8.591248E-1,6.591057E-2,-1.0061786E0,-5.484309E-1,-7.2732854E-1,-3.213203E-1,1.0298511E0,3.3352382E-2,8.321301E-3,-8.621759E-3,-7.257416E-3,4.817207E-3,-1.0081306E-2,-3.5516375E-3,-7.7371304E-3,1.202673E-3,-2.4665925E-3,-7.3560085E-3,-6.1516752E-3,2.2432646E-3,-2.2273038E-3,1.6770184E-2,1.3641377E-2,-2.2036268E-3],"categories":[],"categories_nodes":[],"categories_segments":[],"categories_sizes":[],"default_left":[0,0,0,0,0,0,0,0,0,0,0,0,0,0,0,0,0,0,0,0,0,0,0,0,0,0,0,0,0,0,0],"id":18,"left_children":[1,3,5,7,9,11,13,15,17,19,21,23,25,27,29,-1,-1,-1,-1,-1,-1,-1,-1,-1,-1,-1,-1,-1,-1,-1,-1],"loss_changes":[2.8595703E1,8.172119E0,2.2994781E1,4.9588623E0,2.9144897E0,4.130554E0,4.339773E0,5.268982E0,2.5535023E0,7.0391846E-1,2.9665627E0,2.4264526E0,4.8485537E0,6.3475986E0,4.3218875E0,0E0,0E0,0E0,0E0,0E0,0E0,0E0,0E0,0E0,0E0,0E0,0E0,0E0,0E0,0E0,0E0],"parents":[2147483647,0,0,1,1,2,2,3,3,4,4,5,5,6,6,7,7,8,8,9,9,10,10,11,11,12,12,13,13,14,14],"right_children":[2,4,6,8,10,12,14,16,18,20,22,24,26,28,30,-1,-1,-1,-1,-1,-1,-1,-1,-1,-1,-1,-1,-1,-1,-1,-1],"split_conditions":[1.7002056E1,2.7530529E1,-1.44E1,-7.2E0,-1.97E1,-1.59E1,3.77E1,6.384685E0,2.1533463E1,1.6409397E1,1.1382749E1,-2.47E1,2.0134119E1,-1.31E1,1.748447E1,8.321301E-3,-8.621759E-3,-7.257416E-3,4.817207E-3,-1.0081306E-2,-3.5516375E-3,-7.7371304E-3,1.202673E-3,-2.4665925E-3,-7.3560085E-3,-6.1516752E-3,2.2432646E-3,-2.2273038E-3,1.6770184E-2,1.3641377E-2,-2.2036268E-3],"split_indices":[0,3,4,4,4,4,1,0,3,0,0,4,0,4,0,0,0,0,0,0,0,0,0,0,0,0,0,0,0,0,0],"split_type":[0,0,0,0,0,0,0,0,0,0,0,0,0,0,0,0,0,0,0,0,0,0,0,0,0,0,0,0,0,0,0],"sum_hessian":[2.4399524E3,1.7394382E3,7.0051416E2,8.867161E2,8.5272205E2,6.8323456E2,1.7279633E1,8.8102094E2,5.695174E0,8.346474E2,1.8074621E1,6.548554E2,2.837913E1,6.3696704E0,1.0909962E1,1.0972469E0,8.799237E2,1.7045498E0,3.9906244E0,8.316053E2,3.0421116E0,1.3402368E1,4.672255E0,1.1600882E1,6.432545E2,1.8362799E1,1.0016331E1,2.3933058E0,3.9763649E0,1.0461334E0,9.863829E0],"tree_param":{"num_deleted":"0","num_feature":"5","num_nodes":"31","size_leaf_vector":"1"}},{"base_weights":[-8.5258573E-1,-1.3946433E-1,-8.8449055E-1,2.0983991E-1,-3.8756076E-1,-8.124882E-1,-9.953659E-1,-4.0500367E-1,3.424478E-1,-6.106006E-1,-1.5913486E-1,-7.227913E-1,-8.5673285E-1,-9.970434E-3,-4.414349E-1,1.245723E-3,-8.886768E-3,2.4753472E-2,1.9839033E-3,-2.6689603E-3,-7.517559E-3,2.7562543E-3,-2.746197E-3,-5.755646E-3,-8.183788E-3,-8.584458E-3,1.4862075E-3,-7.36722E-3,4.0565207E-4],"categories":[],"categories_nodes":[],"categories_segments":[],"categories_sizes":[],"default_left":[0,0,0,0,0,0,0,0,0,0,0,0,0,0,0,0,0,0,0,0,0,0,0,0,0,0,0,0,0],"id":19,"left_children":[1,3,5,7,9,11,13,15,17,19,21,23,25,-1,27,-1,-1,-1,-1,-1,-1,-1,-1,-1,-1,-1,-1,-1,-1],"loss_changes":[5.4808105E1,9.144245E0,1.7638794E1,3.7326412E0,3.0360985E0,4.962219E0,4.0118408E-1,2.2311652E0,1.0816441E1,1.2918959E0,1.6690626E0,6.1570435E0,1.7403564E0,0E0,6.7434454E-1,0E0,0E0,0E0,0E0,0E0,0E0,0E0,0E0,0E0,0E0,0E0,0E0,0E0,0E0],"parents":[2147483647,0,0,1,1,2,2,3,3,4,4,5,5,6,6,7,7,8,8,9,9,10,10,11,11,12,12,14,14],"right_children":[2,4,6,8,10,12,14,16,18,20,22,24,26,-1,28,-1,-1,-1,-1,-1,-1,-1,-1,-1,-1,-1,-1,-1,-1],"split_conditions":[1.774514E1,1.6200308E1,2.5730915E1,1.4393652E1,1.7173235E1,2.1023796E1,-1.4E1,1.2434374E1,1.4893442E1,-1.64E1,3.29E1,-1.86E1,2.055844E1,-9.970434E-3,2.8301943E1,1.245723E-3,-8.886768E-3,2.4753472E-2,1.9839033E-3,-2.6689603E-3,-7.517559E-3,2.7562543E-3,-2.746197E-3,-5.755646E-3,-8.183788E-3,-8.584458E-3,1.4862075E-3,-7.36722E-3,4.0565207E-4],"split_indices":[2,2,2,0,2,2,4,0,0,4,1,4,0,0,2,0,0,0,0,0,0,0,0,0,0,0,0,0,0],"split_type":[0,0,0,0,0,0,0,0,0,0,0,0,0,0,0,0,0,0,0,0,0,0,0,0,0,0,0,0,0],"sum_hessian":[2.413353E3,1.03578835E2,2.3097742E3,4.307962E1,6.0499214E1,1.4054218E3,9.043524E2,7.278468E0,3.580115E1,2.9763968E1,3.0735249E1,4.6997708E2,9.354447E2,9.008244E2,3.5279734E0,3.8287723E0,3.4496958E0,1.2411889E0,3.4559963E1,9.506648E0,2.0257318E1,6.1596446E0,2.4575603E1,1.8777774E2,2.8219934E2,9.3399945E2,1.4452639E0,1.8600096E0,1.6679639E0],"tree_param":{"num_deleted":"0","num_feature":"5","num_nodes":"29","size_leaf_vector":"1"}},{"base_weights":[-8.480829E-1,-1.7658125E-1,-8.782272E-1,1.6805646E-1,-4.2725098E-1,-8.0804104E-1,-9.847367E-1,3.980162E-1,-2.1879049E-1,-5.550704E-1,6.9881044E-2,-7.212796E-1,-8.510717E-1,-1.4803793E-3,-9.856445E-1,6.5105096E-3,-2.9145468E-3,3.0312017E-3,-5.7464414E-3,-7.0503084E-3,-2.2350955E-3,-8.279403E-3,3.76968E-3,-5.6839758E-3,-8.198149E-3,1.6155402E-3,-8.536649E-3,-9.8726805E-3,-4.54451E-3],"categories":[],"categories_nodes":[],"categories_segments":[],"categories_sizes":[],"default_left":[0,0,0,0,0,0,0,0,0,0,0,0,0,0,0,0,0,0,0,0,0,0,0,0,0,0,0,0,0],"id":20,"left_children":[1,3,5,7,9,11,13,15,17,19,21,23,25,-1,27,-1,-1,-1,-1,-1,-1,-1,-1,-1,-1,-1,-1,-1,-1],"loss_changes":[4.8477417E1,9.097062E0,1.6390991E1,4.064259E0,3.8998575E0,4.5809937E0,5.442505E-1,5.143452E0,3.3896985E0,2.2512589E0,3.9834082E0,6.582062E0,2.5657349E0,0E0,3.340454E-1,0E0,0E0,0E0,0E0,0E0,0E0,0E0,0E0,0E0,0E0,0E0,0E0,0E0,0E0],"parents":[2147483647,0,0,1,1,2,2,3,3,4,4,5,5,6,6,7,7,8,8,9,9,10,10,11,11,12,12,14,14],"right_children":[2,4,6,8,10,12,14,16,18,20,22,24,26,-1,28,-1,-1,-1,-1,-1,-1,-1,-1,-1,-1,-1,-1,-1,-1],"split_conditions":[1.774514E1,1.6200308E1,2.5684626E1,2.18E1,2.1973848E1,2.1023796E1,2.42E1,2.1478792E1,1.5384679E1,1.7400288E1,1.6885794E1,-1.86E1,-2.55E1,-1.4803793E-3,-1.4E1,6.5105096E-3,-2.9145468E-3,3.0312017E-3,-5.7464414E-3,-7.0503084E-3,-2.2350955E-3,-8.279403E-3,3.76968E-3,-5.6839758E-3,-8.198149E-3,1.6155402E-3,-8.536649E-3,-9.8726805E-3,-4.54451E-3],"split_indices":[2,2,2,3,3,2,3,0,0,2,2,4,4,0,4,0,0,0,0,0,0,0,0,0,0,0,0,0,0],"split_type":[0,0,0,0,0,0,0,0,0,0,0,0,0,0,0,0,0,0,0,0,0,0,0,0,0,0,0,0,0],"sum_hessian":[2.401555E3,1.0347082E2,2.298084E3,4.3707863E1,5.9762955E1,1.3904263E3,9.076578E2,2.7394457E1,1.6313406E1,4.744711E1,1.2315845E1,4.6686432E2,9.235619E2,1.1615988E0,9.064962E2,2.0080622E1,7.313835E0,6.6736803E0,9.639725E0,3.1895027E1,1.5552084E1,2.706581E0,9.609263E0,1.8562582E2,2.812385E2,2.2024603E0,9.2135944E2,9.02878E2,3.618231E0],"tree_param":{"num_deleted":"0","num_feature":"5","num_nodes":"29","size_leaf_vector":"1"}},{"base_weights":[-8.4389186E-1,-1.5053122E-1,-8.716459E-1,1.6071887E-1,-4.1655806E-1,-7.962137E-1,-9.886437E-1,-4.0667036E-1,2.615771E-1,-6.679456E-1,-3.0761132E-2,-7.071849E-1,-8.412188E-1,-1.472189E-3,-9.895749E-1,1.2369049E-3,-8.526317E-3,1.4972755E-2,1.0254595E-3,-8.347564E-3,-2.864677E-3,-7.960106E-3,2.8429967E-3,-7.5788507E-3,-4.526405E-3,2.7997412E-3,-8.429966E-3,-7.3927986E-3,-9.929951E-3],"categories":[],"categories_nodes":[],"categories_segments":[],"categories_sizes":[],"default_left":[0,0,0,0,0,0,0,0,0,0,0,0,0,0,0,0,0,0,0,0,0,0,0,0,0,0,0,0,0],"id":21,"left_children":[1,3,5,7,9,11,13,15,17,19,21,23,25,-1,27,-1,-1,-1,-1,-1,-1,-1,-1,-1,-1,-1,-1,-1,-1],"loss_changes":[4.55907E1,7.738784E0,1.9372803E1,2.5910888E0,4.8514376E0,4.9904785E0,5.526123E-1,1.7480265E0,7.210782E0,1.693286E0,5.257409E0,5.77861E0,2.071106E0,0E0,2.8015137E-2,0E0,0E0,0E0,0E0,0E0,0E0,0E0,0E0,0E0,0E0,0E0,0E0,0E0,0E0],"parents":[2147483647,0,0,1,1,2,2,3,3,4,4,5,5,6,6,7,7,8,8,9,9,10,10,11,11,12,12,14,14],"right_children":[2,4,6,8,10,12,14,16,18,20,22,24,26,-1,28,-1,-1,-1,-1,-1,-1,-1,-1,-1,-1,-1,-1,-1,-1],"split_conditions":[1.7557335E1,1.6200308E1,2.5730915E1,1.4029358E1,1.7173235E1,2.1023796E1,2.42E1,1.194224E1,1.5384679E1,2.14E1,2.05E1,2.3093288E1,6.384685E0,-1.472189E-3,7.2889605E0,1.2369049E-3,-8.526317E-3,1.4972755E-2,1.0254595E-3,-8.347564E-3,-2.864677E-3,-7.960106E-3,2.8429967E-3,-7.5788507E-3,-4.526405E-3,2.7997412E-3,-8.429966E-3,-7.3927986E-3,-9.929951E-3],"split_indices":[2,2,2,0,2,2,3,0,0,3,3,3,0,0,0,0,0,0,0,0,0,0,0,0,0,0,0,0,0],"split_type":[0,0,0,0,0,0,0,0,0,0,0,0,0,0,0,0,0,0,0,0,0,0,0,0,0,0,0,0,0],"sum_hessian":[2.3749607E3,9.165403E1,2.2833066E3,4.2419395E1,4.9234634E1,1.3929999E3,8.903068E2,5.9447036E0,3.6474693E1,2.9367352E1,1.9867281E1,4.7334576E2,9.196542E2,1.1600835E0,8.891467E2,3.0454893E0,2.8992145E0,3.1994505E0,3.327524E1,1.9605938E1,9.761413E0,5.3488817E0,1.4518399E1,3.9307553E2,8.027022E1,1.2081654E0,9.18446E2,1.4913549E1,8.7423315E2],"tree_param":{"num_deleted":"0","num_feature":"5","num_nodes":"29","size_leaf_vector":"1"}},{"base_weights":[-8.4384894E-1,-1.5827622E-1,-8.751135E-1,1.4089325E-1,-3.7657478E-1,-7.99754E-1,-9.913423E-1,2.8054374E-1,-4.5526102E-1,-5.151725E-1,1.6725644E-1,-7.160551E-1,-8.412305E-1,-9.922481E-3,-2.3370513E-3,1.1296606E-2,9.2366745E-4,-8.573703E-3,-1.0740346E-3,-8.136115E-3,-3.5475849E-3,-8.159496E-3,4.8617357E-3,-5.6165406E-3,-8.17066E-3,-8.43759E-3,9.652037E-4],"categories":[],"categories_nodes":[],"categories_segments":[],"categories_sizes":[],"default_left":[0,0,0,0,0,0,0,0,0,0,0,0,0,0,0,0,0,0,0,0,0,0,0,0,0,0,0],"id":22,"left_children":[1,3,5,7,9,11,13,15,17,19,21,23,25,-1,-1,-1,-1,-1,-1,-1,-1,-1,-1,-1,-1,-1,-1],"loss_changes":[5.0657593E1,6.8831263E0,1.9057617E1,3.8613443E0,4.6640224E0,4.1884766E0,3.770752E-1,5.800285E0,1.1518166E0,2.040207E0,4.5011945E0,6.777603E0,2.2557983E0,0E0,0E0,0E0,0E0,0E0,0E0,0E0,0E0,0E0,0E0,0E0,0E0,0E0,0E0],"parents":[2147483647,0,0,1,1,2,2,3,3,4,4,5,5,6,6,7,7,8,8,9,9,10,10,11,11,12,12],"right_children":[2,4,6,8,10,12,14,16,18,20,22,24,26,-1,-1,-1,-1,-1,-1,-1,-1,-1,-1,-1,-1,-1,-1],"split_conditions":[1.774514E1,1.6200308E1,2.5730915E1,2.4229734E1,2.1973848E1,2.1023796E1,-1.09E1,3.05E1,3.91E1,2.047071E1,1.6885794E1,-1.86E1,6.29E1,-9.922481E-3,-2.3370513E-3,1.1296606E-2,9.2366745E-4,-8.573703E-3,-1.0740346E-3,-8.136115E-3,-3.5475849E-3,-8.159496E-3,4.8617357E-3,-5.6165406E-3,-8.17066E-3,-8.43759E-3,9.652037E-4],"split_indices":[2,2,2,3,3,2,4,1,1,3,2,4,1,0,0,0,0,0,0,0,0,0,0,0,0,0,0],"split_type":[0,0,0,0,0,0,0,0,0,0,0,0,0,0,0,0,0,0,0,0,0,0,0,0,0,0,0],"sum_hessian":[2.3688755E3,1.0358199E2,2.2652935E3,4.384659E1,5.9735405E1,1.3790421E3,8.862513E2,3.595375E1,7.8928366E0,4.7645454E1,1.208995E1,4.6299307E2,9.160491E2,8.848836E2,1.3676642E0,5.614788E0,3.0338963E1,2.9815588E0,4.911278E0,1.5233204E1,3.241225E1,2.5793717E0,9.510578E0,1.8570006E2,2.7729303E2,9.1368567E2,2.363382E0],"tree_param":{"num_deleted":"0","num_feature":"5","num_nodes":"27","size_leaf_vector":"1"}},{"base_weights":[-8.4509206E-1,-1.5694442E-1,-8.762428E-1,2.1410401E-1,-4.3122086E-1,-8.062489E-1,-9.847095E-1,3.3850753E-1,-3.324928E-1,-7.518053E-1,-1.6810521E-1,-7.3023546E-1,-8.439157E-1,-9.856478E-1,-1.4482768E-3,1.035908E-2,1.7232215E-3,-5.7672397E-3,5.1745954E-3,-4.3364656E-3,-8.59602E-3,-3.8180258E-3,2.350434E-3,-5.7633487E-3,-8.306569E-3,-8.464928E-3,1.3846258E-3,-9.878842E-3,-6.510878E-3],"categories":[],"categories_nodes":[],"categories_segments":[],"categories_sizes":[],"default_left":[0,0,0,0,0,0,0,0,0,0,0,0,0,0,0,0,0,0,0,0,0,0,0,0,0,0,0,0,0],"id":23,"left_children":[1,3,5,7,9,11,13,15,17,19,21,23,25,27,-1,-1,-1,-1,-1,-1,-1,-1,-1,-1,-1,-1,-1,-1,-1],"loss_changes":[5.046472E1,1.0620222E1,1.6349731E1,3.1477218E0,4.918831E0,3.3291016E0,5.517578E-1,4.092998E0,2.121019E0,5.420494E-1,3.0308404E0,6.692459E0,2.4337158E0,1.5197754E-2,0E0,0E0,0E0,0E0,0E0,0E0,0E0,0E0,0E0,0E0,0E0,0E0,0E0,0E0,0E0],"parents":[2147483647,0,0,1,1,2,2,3,3,4,4,5,5,6,6,7,7,8,8,9,9,10,10,11,11,12,12,13,13],"right_children":[2,4,6,8,10,12,14,16,18,20,22,24,26,28,-1,-1,-1,-1,-1,-1,-1,-1,-1,-1,-1,-1,-1,-1,-1],"split_conditions":[1.774514E1,1.6200308E1,2.5730915E1,2.4229734E1,2.0777151E1,2.1023796E1,-1.09E1,3.11E1,3.0519667E1,-1.66E1,1.7400288E1,-1.86E1,6.29E1,6.56E1,-1.4482768E-3,1.035908E-2,1.7232215E-3,-5.7672397E-3,5.1745954E-3,-4.3364656E-3,-8.59602E-3,-3.8180258E-3,2.350434E-3,-5.7633487E-3,-8.306569E-3,-8.464928E-3,1.3846258E-3,-9.878842E-3,-6.510878E-3],"split_indices":[2,2,2,3,3,2,4,1,3,4,2,4,1,1,0,0,0,0,0,0,0,0,0,0,0,0,0,0,0],"split_type":[0,0,0,0,0,0,0,0,0,0,0,0,0,0,0,0,0,0,0,0,0,0,0,0,0,0,0,0,0],"sum_hessian":[2.3595798E3,1.02448074E2,2.2571316E3,4.3635796E1,5.881228E1,1.3769894E3,8.801423E2,3.5855835E1,7.7799625E0,2.5673698E1,3.313858E1,4.6300607E2,9.1398334E2,8.7898663E2,1.1556007E0,5.8928633E0,2.9962973E1,6.2931175E0,1.4868448E0,7.7683806E0,1.790532E1,2.1692802E1,1.1445777E1,1.8548347E2,2.7752258E2,9.117299E2,2.2534232E0,8.7121E2,7.776626E0],"tree_param":{"num_deleted":"0","num_feature":"5","num_nodes":"29","size_leaf_vector":"1"}},{"base_weights":[-8.3680457E-1,-7.487636E-1,-9.71997E-1,-7.582324E-1,6.8021244E-1,-9.7731286E-1,-2.4391134E-1,-8.0627847E-1,-6.1976516E-1,-3.7962174E-1,1.2226602E0,-9.833163E-1,-7.4096406E-1,1.16178386E-1,-7.944093E-3,-8.5621495E-3,-7.7233454E-3,-6.527527E-3,5.5123656E-3,2.7074548E-3,-7.486927E-3,1.6605275E-2,-2.606384E-3,-1.0392653E-2,-9.623736E-3,-9.148617E-3,-1.7738092E-3,-4.9229143E-3,6.8607614E-3],"categories":[],"categories_nodes":[],"categories_segments":[],"categories_sizes":[],"default_left":[0,0,0,0,0,0,0,0,0,0,0,0,0,0,0,0,0,0,0,0,0,0,0,0,0,0,0,0,0],"id":24,"left_children":[1,3,5,7,9,11,13,15,17,19,21,23,25,27,-1,-1,-1,-1,-1,-1,-1,-1,-1,-1,-1,-1,-1,-1,-1],"loss_changes":[2.7071045E1,1.971283E1,3.3137817E0,8.880249E0,6.136449E0,5.6365967E-1,1.6750889E0,1.1073608E0,1.4556534E1,1.1876394E0,4.825388E0,3.704834E-2,2.4465084E0,2.314168E0,0E0,0E0,0E0,0E0,0E0,0E0,0E0,0E0,0E0,0E0,0E0,0E0,0E0,0E0,0E0],"parents":[2147483647,0,0,1,1,2,2,3,3,4,4,5,5,6,6,7,7,8,8,9,9,10,10,11,11,12,12,13,13],"right_children":[2,4,6,8,10,12,14,16,18,20,22,24,26,28,-1,-1,-1,-1,-1,-1,-1,-1,-1,-1,-1,-1,-1,-1,-1],"split_conditions":[2.69E1,-7.2E0,-1.53E1,1.8408005E1,1.4363743E1,-2.02E1,-9.7E0,1.5130776E1,-1.44E1,1.85E1,2.3438643E1,-3E1,1.1754732E1,3.91E1,-7.944093E-3,-8.5621495E-3,-7.7233454E-3,-6.527527E-3,5.5123656E-3,2.7074548E-3,-7.486927E-3,1.6605275E-2,-2.606384E-3,-1.0392653E-2,-9.623736E-3,-9.148617E-3,-1.7738092E-3,-4.9229143E-3,6.8607614E-3],"split_indices":[3,4,4,0,0,4,4,0,4,1,3,4,0,1,0,0,0,0,0,0,0,0,0,0,0,0,0,0,0],"split_type":[0,0,0,0,0,0,0,0,0,0,0,0,0,0,0,0,0,0,0,0,0,0,0,0,0,0,0,0,0],"sum_hessian":[2.3345488E3,1.4177865E3,9.167623E2,1.40892E3,8.8665085E0,9.097776E2,6.9846954E0,1.0424E3,3.6652002E2,3.103351E0,5.7631574E0,8.8415894E2,2.5618704E1,4.6995807E0,2.2851148E0,4.1202524E2,6.3037476E2,3.5690836E2,9.611659E0,1.2199682E0,1.8833829E0,4.357382E0,1.4057754E0,2.2757114E2,6.5658777E2,1.9101501E1,6.5172024E0,2.3387327E0,2.360848E0],"tree_param":{"num_deleted":"0","num_feature":"5","num_nodes":"29","size_leaf_vector":"1"}},{"base_weights":[-8.347032E-1,-1.7180975E-1,-8.6540467E-1,1.0904718E-1,-3.808168E-1,-7.929282E-1,-9.764695E-1,-1.2836552E-1,3.9454702E-1,-5.708387E-1,-1.9808331E-1,-7.040661E-1,-8.374077E-1,-9.77427E-1,-9.178805E-4,7.5168572E-3,-4.633961E-3,1.7858578E-2,1.1616993E-4,-2.1840008E-3,-7.195064E-3,3.166444E-3,-3.2791847E-3,-5.510818E-3,-8.045617E-3,2.28784E-3,-8.401159E-3,-1.0424348E-2,-9.563891E-3],"categories":[],"categories_nodes":[],"categories_segments":[],"categories_sizes":[],"default_left":[0,0,0,0,0,0,0,0,0,0,0,0,0,0,0,0,0,0,0,0,0,0,0,0,0,0,0,0,0],"id":25,"left_children":[1,3,5,7,9,11,13,15,17,19,21,23,25,27,-1,-1,-1,-1,-1,-1,-1,-1,-1,-1,-1,-1,-1,-1,-1],"loss_changes":[4.712976E1,6.1509266E0,1.7095825E1,3.1132085E0,1.9666281E0,4.741211E0,6.491699E-1,7.844309E0,1.10393715E1,1.3534317E0,2.2466404E0,6.5698395E0,2.7721558E0,1.9458008E-1,0E0,0E0,0E0,0E0,0E0,0E0,0E0,0E0,0E0,0E0,0E0,0E0,0E0,0E0,0E0],"parents":[2147483647,0,0,1,1,2,2,3,3,4,4,5,5,6,6,7,7,8,8,9,9,10,10,11,11,12,12,13,13],"right_children":[2,4,6,8,10,12,14,16,18,20,22,24,26,28,-1,-1,-1,-1,-1,-1,-1,-1,-1,-1,-1,-1,-1,-1,-1],"split_conditions":[1.774514E1,1.6200308E1,2.5684626E1,4.16E1,1.7173235E1,2.1023796E1,-1.09E1,1.0049875E1,-1.48E1,-1.64E1,1.7329018E1,-1.86E1,-2.55E1,-3.05E1,-9.178805E-4,7.5168572E-3,-4.633961E-3,1.7858578E-2,1.1616993E-4,-2.1840008E-3,-7.195064E-3,3.166444E-3,-3.2791847E-3,-5.510818E-3,-8.045617E-3,2.28784E-3,-8.401159E-3,-1.0424348E-2,-9.563891E-3],"split_indices":[2,2,2,1,2,2,4,2,4,4,0,4,4,4,0,0,0,0,0,0,0,0,0,0,0,0,0,0,0],"split_type":[0,0,0,0,0,0,0,0,0,0,0,0,0,0,0,0,0,0,0,0,0,0,0,0,0,0,0,0,0],"sum_hessian":[2.3220635E3,1.0307645E2,2.218987E3,4.4183006E1,5.8893444E1,1.3476829E3,8.7130414E2,2.442354E1,1.9759466E1,2.7829773E1,3.106367E1,4.551674E2,8.9251544E2,8.7025745E2,1.0467087E0,6.3913207E0,1.8032219E1,3.4739165E0,1.628555E1,8.989023E0,1.884075E1,5.967373E0,2.5096298E1,1.8302786E2,2.721395E2,2.0498366E0,8.904656E2,2.0090472E2,6.693527E2],"tree_param":{"num_deleted":"0","num_feature":"5","num_nodes":"29","size_leaf_vector":"1"}},{"base_weights":[-8.344492E-1,-1.6699581E-1,-8.651869E-1,1.8409367E-1,-4.3273804E-1,-7.877228E-1,-9.849199E-1,3.3100778E-1,-4.5130172E-1,-7.649346E-1,-1.2977843E-1,-6.9642645E-1,-8.334781E-1,-1.5927644E-3,-9.85886E-1,9.072622E-3,1.4744583E-3,-7.168021E-3,5.146313E-3,-9.3612075E-3,-4.7509912E-3,-5.9420597E-3,6.6355895E-4,-8.037089E-3,-5.783995E-3,-8.352738E-3,1.798897E-3,-7.1134875E-3,-9.895995E-3],"categories":[],"categories_nodes":[],"categories_segments":[],"categories_sizes":[],"default_left":[0,0,0,0,0,0,0,0,0,0,0,0,0,0,0,0,0,0,0,0,0,0,0,0,0,0,0,0,0],"id":26,"left_children":[1,3,5,7,9,11,13,15,17,19,21,23,25,-1,27,-1,-1,-1,-1,-1,-1,-1,-1,-1,-1,-1,-1,-1,-1],"loss_changes":[4.7067505E1,9.647568E0,1.9626465E1,4.339074E0,5.8052464E0,5.0195312E0,5.2911377E-1,3.783247E0,2.6389794E0,9.335575E-1,2.9441886E0,5.279251E0,1.7661133E0,0E0,1.7163086E-1,0E0,0E0,0E0,0E0,0E0,0E0,0E0,0E0,0E0,0E0,0E0,0E0,0E0,0E0],"parents":[2147483647,0,0,1,1,2,2,3,3,4,4,5,5,6,6,7,7,8,8,9,9,10,10,11,11,12,12,14,14],"right_children":[2,4,6,8,10,12,14,16,18,20,22,24,26,-1,28,-1,-1,-1,-1,-1,-1,-1,-1,-1,-1,-1,-1,-1,-1],"split_conditions":[1.774514E1,1.6200308E1,2.5730915E1,2.4229734E1,2.0856894E1,2.1023796E1,2.4363293E1,1.0049875E1,3.0519667E1,2.05E1,1.6885794E1,2.1533463E1,2.055844E1,-1.5927644E-3,7.2889605E0,9.072622E-3,1.4744583E-3,-7.168021E-3,5.146313E-3,-9.3612075E-3,-4.7509912E-3,-5.9420597E-3,6.6355895E-4,-8.037089E-3,-5.783995E-3,-8.352738E-3,1.798897E-3,-7.1134875E-3,-9.895995E-3],"split_indices":[2,2,2,3,3,2,3,2,3,3,2,3,0,0,0,0,0,0,0,0,0,0,0,0,0,0,0,0,0],"split_type":[0,0,0,0,0,0,0,0,0,0,0,0,0,0,0,0,0,0,0,0,0,0,0,0,0,0,0,0,0],"sum_hessian":[2.3002322E3,1.0155065E2,2.1986816E3,4.388222E1,5.7668434E1,1.3395841E3,8.590975E2,3.603043E1,7.851789E0,2.6779604E1,3.0888832E1,4.5264108E2,8.86943E2,1.197928E0,8.5789954E2,7.752024E0,2.8278406E1,6.361232E0,1.4905573E0,1.5433969E1,1.1345634E1,8.5689E0,2.2319931E1,2.3406985E2,2.1857121E2,8.855495E2,1.3934934E0,1.4019492E1,8.4388007E2],"tree_param":{"num_deleted":"0","num_feature":"5","num_nodes":"29","size_leaf_vector":"1"}},{"base_weights":[-8.2620496E-1,-1.4507894E-1,-8.5763985E-1,1.8868192E-1,-3.972965E-1,-7.8231645E-1,-9.746378E-1,8.346337E-1,6.523759E-2,-6.422313E-1,-1.518266E-1,-6.989792E-1,-8.233295E-1,-7.2978553E-4,-9.756257E-1,2.5311295E-2,-5.95093E-4,-8.981685E-3,1.8464561E-3,-6.8739727E-3,9.6782576E-4,-7.4446956E-3,6.191528E-4,-7.971415E-3,-5.9166136E-3,3.7078017E-3,-8.251931E-3,-7.28783E-3,-9.790896E-3],"categories":[],"categories_nodes":[],"categories_segments":[],"categories_sizes":[],"default_left":[0,0,0,0,0,0,0,0,0,0,0,0,0,0,0,0,0,0,0,0,0,0,0,0,0,0,0,0,0],"id":27,"left_children":[1,3,5,7,9,11,13,15,17,19,21,23,25,-1,27,-1,-1,-1,-1,-1,-1,-1,-1,-1,-1,-1,-1,-1,-1],"loss_changes":[4.894995E1,8.687914E0,1.854309E1,3.5112233E0,3.4256878E0,3.9968872E0,6.894531E-1,1.0905069E1,4.609438E0,1.0352249E0,3.9193602E0,4.246155E0,2.2885132E0,0E0,1.574707E-2,0E0,0E0,0E0,0E0,0E0,0E0,0E0,0E0,0E0,0E0,0E0,0E0,0E0,0E0],"parents":[2147483647,0,0,1,1,2,2,3,3,4,4,5,5,6,6,7,7,8,8,9,9,10,10,11,11,12,12,14,14],"right_children":[2,4,6,8,10,12,14,16,18,20,22,24,26,-1,28,-1,-1,-1,-1,-1,-1,-1,-1,-1,-1,-1,-1,-1,-1],"split_conditions":[1.774514E1,1.6200308E1,2.5730915E1,3.05E1,1.7173235E1,2.1023796E1,2.429856E1,2.03924E1,3.34E1,2.3307724E1,2.05E1,2.1533463E1,6.384685E0,-7.2978553E-4,7.2889605E0,2.5311295E-2,-5.95093E-4,-8.981685E-3,1.8464561E-3,-6.8739727E-3,9.6782576E-4,-7.4446956E-3,6.191528E-4,-7.971415E-3,-5.9166136E-3,3.7078017E-3,-8.251931E-3,-7.28783E-3,-9.790896E-3],"split_indices":[2,2,2,1,2,2,3,3,1,3,3,3,0,0,0,0,0,0,0,0,0,0,0,0,0,0,0,0,0],"split_type":[0,0,0,0,0,0,0,0,0,0,0,0,0,0,0,0,0,0,0,0,0,0,0,0,0,0,0,0,0],"sum_hessian":[2.290987E3,1.0131546E2,2.1896714E3,4.3716755E1,5.759871E1,1.3367545E3,8.52917E2,6.089706E0,3.762705E1,2.802173E1,2.9576977E1,4.4683746E2,8.8991705E2,1.0154272E0,8.5190155E2,1.469939E0,4.6197667E0,3.4301462E0,3.4196903E1,2.6473598E1,1.5481329E0,7.181572E0,2.2395405E1,2.3001637E2,2.1682109E2,1.078233E0,8.888388E2,1.4714716E1,8.371869E2],"tree_param":{"num_deleted":"0","num_feature":"5","num_nodes":"29","size_leaf_vector":"1"}},{"base_weights":[-8.265904E-1,-1.5719686E-1,-8.575254E-1,1.3753718E-1,-3.7733018E-1,-7.8206646E-1,-9.753566E-1,-7.226709E-2,4.1351673E-1,-5.3859174E-1,-4.926481E-2,-8.150664E-1,-6.6650176E-1,-9.77145E-1,-3.971503E-1,-5.1721125E-3,4.4503165E-3,1.3126451E-2,1.2852624E-3,1.1036537E-2,-6.2393867E-3,-5.0604413E-3,3.3793985E-3,-7.836331E-3,-8.838641E-3,-5.2142385E-3,-7.220352E-3,-1.0542665E-2,-9.585964E-3,-7.337499E-3,1.6868538E-3],"categories":[],"categories_nodes":[],"categories_segments":[],"categories_sizes":[],"default_left":[0,0,0,0,0,0,0,0,0,0,0,0,0,0,0,0,0,0,0,0,0,0,0,0,0,0,0,0,0,0,0],"id":28,"left_children":[1,3,5,7,9,11,13,15,17,19,21,23,25,27,29,-1,-1,-1,-1,-1,-1,-1,-1,-1,-1,-1,-1,-1,-1,-1,-1],"loss_changes":[4.6908936E1,6.6421223E0,1.8542236E1,2.5869007E0,3.0637693E0,4.5237427E0,4.841919E-1,6.20072E0,4.756673E0,6.1635475E0,3.770463E0,1.5327759E0,2.0454407E0,1.9140625E-1,9.40076E-1,0E0,0E0,0E0,0E0,0E0,0E0,0E0,0E0,0E0,0E0,0E0,0E0,0E0,0E0,0E0,0E0],"parents":[2147483647,0,0,1,1,2,2,3,3,4,4,5,5,6,6,7,7,8,8,9,9,10,10,11,11,12,12,13,13,14,14],"right_children":[2,4,6,8,10,12,14,16,18,20,22,24,26,28,30,-1,-1,-1,-1,-1,-1,-1,-1,-1,-1,-1,-1,-1,-1,-1,-1],"split_conditions":[1.774514E1,1.6200308E1,2.5730915E1,4.16E1,1.7400288E1,1.8408005E1,-1.4E1,-1.28E1,-1.48E1,-1.72E1,-1.71E1,4.95E1,1.8987623E1,-3.15E1,2.8301943E1,-5.1721125E-3,4.4503165E-3,1.3126451E-2,1.2852624E-3,1.1036537E-2,-6.2393867E-3,-5.0604413E-3,3.3793985E-3,-7.836331E-3,-8.838641E-3,-5.2142385E-3,-7.220352E-3,-1.0542665E-2,-9.585964E-3,-7.337499E-3,1.6868538E-3],"split_indices":[2,2,2,1,2,0,4,4,4,4,4,1,0,4,2,0,0,0,0,0,0,0,0,0,0,0,0,0,0,0,0],"split_type":[0,0,0,0,0,0,0,0,0,0,0,0,0,0,0,0,0,0,0,0,0,0,0,0,0,0,0,0,0,0,0],"sum_hessian":[2.270795E3,1.0057438E2,2.1702205E3,4.3161346E1,5.7413036E1,1.3276393E3,8.4258124E2,2.4939821E1,1.8221525E1,3.806188E1,1.9351158E1,1.028029E3,2.996102E2,8.392953E2,3.2859538E0,1.340766E1,1.1532161E1,3.517643E0,1.4703883E1,1.2909052E0,3.6770973E1,8.737155E0,1.0614002E1,7.141351E2,3.1389392E2,8.581446E1,2.1379575E2,1.5189723E2,6.873981E2,1.874257E0,1.4116967E0],"tree_param":{"num_deleted":"0","num_feature":"5","num_nodes":"31","size_leaf_vector":"1"}},{"base_weights":[-8.1733644E-1,-8.893536E-1,-6.409583E-1,-8.1664276E-1,-9.648041E-1,-6.6778547E-1,6.7693466E-1,-8.241001E-1,2.2681762E-1,-9.688261E-1,-2.854599E-1,-7.1010745E-1,-4.2170134E-1,9.9326134E-1,-5.3665465E-1,8.685065E-3,-8.273661E-3,-2.5357348E-3,8.991351E-3,-9.708485E-3,-3.230616E-3,2.701254E-3,-8.020648E-3,-2.8546276E-3,-7.183472E-3,-6.578303E-3,-2.151194E-3,1.4681676E-2,9.116094E-4,-1.137523E-3,-6.765334E-3],"categories":[],"categories_nodes":[],"categories_segments":[],"categories_sizes":[],"default_left":[0,0,0,0,0,0,0,0,0,0,0,0,0,0,0,0,0,0,0,0,0,0,0,0,0,0,0,0,0,0,0],"id":29,"left_children":[1,3,5,7,9,11,13,15,17,19,21,23,25,27,29,-1,-1,-1,-1,-1,-1,-1,-1,-1,-1,-1,-1,-1,-1,-1,-1],"loss_changes":[2.8164673E1,8.010254E0,2.3767212E1,6.5925903E0,1.8588257E0,6.436798E0,5.77417E0,5.2382812E0,2.3678997E0,7.003784E-1,1.9437704E0,1.7208557E0,4.608509E0,4.6560802E0,1.2843281E-1,0E0,0E0,0E0,0E0,0E0,0E0,0E0,0E0,0E0,0E0,0E0,0E0,0E0,0E0,0E0,0E0],"parents":[2147483647,0,0,1,1,2,2,3,3,4,4,5,5,6,6,7,7,8,8,9,9,10,10,11,11,12,12,13,13,14,14],"right_children":[2,4,6,8,10,12,14,16,18,20,22,24,26,28,30,-1,-1,-1,-1,-1,-1,-1,-1,-1,-1,-1,-1,-1,-1,-1,-1],"split_conditions":[1.7002056E1,2.7530529E1,-1.37E1,-7.2E0,-1.42E1,-1.73E1,2.13224E1,6.384685E0,1.4363743E1,1.6409397E1,-9.7E0,-2.47E1,2.0681393E1,4.5E1,3.9E1,8.685065E-3,-8.273661E-3,-2.5357348E-3,8.991351E-3,-9.708485E-3,-3.230616E-3,2.701254E-3,-8.020648E-3,-2.8546276E-3,-7.183472E-3,-6.578303E-3,-2.151194E-3,1.4681676E-2,9.116094E-4,-1.137523E-3,-6.765334E-3],"split_indices":[0,3,4,4,4,4,0,0,0,0,4,4,3,1,1,0,0,0,0,0,0,0,0,0,0,0,0,0,0,0,0],"split_type":[0,0,0,0,0,0,0,0,0,0,0,0,0,0,0,0,0,0,0,0,0,0,0,0,0,0,0,0,0,0,0],"sum_hessian":[2.2611777E3,1.6027252E3,6.584525E2,8.22202E2,7.8052313E2,6.457998E2,1.2652669E1,8.165764E2,5.6255927E0,7.7550574E2,5.017433E0,5.494234E2,9.637643E1,1.0180606E1,2.4720628E0,1.0624566E0,8.15514E2,3.6443975E0,1.9811951E0,7.725828E2,2.922877E0,2.647394E0,2.370039E0,1.1136568E1,5.382868E2,4.395279E1,5.2423634E1,6.258402E0,3.9222043E0,1.0651034E0,1.4069594E0],"tree_param":{"num_deleted":"0","num_feature":"5","num_nodes":"31","size_leaf_vector":"1"}},{"base_weights":[-8.258824E-1,-2.0897973E-1,-8.551214E-1,1.11007735E-1,-4.5031336E-1,-7.740386E-1,-9.65928E-1,2.576035E-1,-5.436932E-1,-5.896858E-1,6.9766134E-2,-7.005423E-1,-8.136749E-1,-9.6787596E-1,7.608712E-4,1.0249525E-2,3.9320567E-4,-8.334778E-3,4.355742E-3,-8.698203E-3,-4.248452E-3,7.459981E-3,-3.4377007E-3,-8.260508E-3,-5.6386013E-3,-7.4321806E-4,-8.171827E-3,-8.713452E-3,-9.895256E-3],"categories":[],"categories_nodes":[],"categories_segments":[],"categories_sizes":[],"default_left":[0,0,0,0,0,0,0,0,0,0,0,0,0,0,0,0,0,0,0,0,0,0,0,0,0,0,0,0,0],"id":30,"left_children":[1,3,5,7,9,11,13,15,17,19,21,23,25,27,-1,-1,-1,-1,-1,-1,-1,-1,-1,-1,-1,-1,-1,-1,-1],"loss_changes":[4.0344116E1,8.002834E0,1.8520264E1,4.4666E0,4.310871E0,3.052246E0,1.9049072E0,6.2426934E0,2.7946246E0,1.7805634E0,3.9879372E0,7.1308594E0,2.0181885E0,1.0197144E0,0E0,0E0,0E0,0E0,0E0,0E0,0E0,0E0,0E0,0E0,0E0,0E0,0E0,0E0,0E0],"parents":[2147483647,0,0,1,1,2,2,3,3,4,4,5,5,6,6,7,7,8,8,9,9,10,10,11,11,12,12,13,13],"right_children":[2,4,6,8,10,12,14,16,18,20,22,24,26,28,-1,-1,-1,-1,-1,-1,-1,-1,-1,-1,-1,-1,-1,-1,-1],"split_conditions":[1.774514E1,1.6200308E1,2.5304941E1,2.4229734E1,2.1973848E1,2.1023796E1,1.724103E1,1.0049875E1,3.0519667E1,2.047071E1,2.2490221E1,2.1533463E1,8.487774E0,2.7530529E1,7.608712E-4,1.0249525E-2,3.9320567E-4,-8.334778E-3,4.355742E-3,-8.698203E-3,-4.248452E-3,7.459981E-3,-3.4377007E-3,-8.260508E-3,-5.6386013E-3,-7.4321806E-4,-8.171827E-3,-8.713452E-3,-9.895256E-3],"split_indices":[2,2,2,3,3,2,0,2,3,3,3,3,0,3,0,0,0,0,0,0,0,0,0,0,0,0,0,0,0],"split_type":[0,0,0,0,0,0,0,0,0,0,0,0,0,0,0,0,0,0,0,0,0,0,0,0,0,0,0,0,0],"sum_hessian":[2.2455679E3,1.01984474E2,2.1435833E3,4.4079247E1,5.790523E1,1.2424244E3,9.0115894E2,3.6510597E1,7.5686483E0,4.5561646E1,1.2343583E1,4.4182895E2,8.0059546E2,8.9954846E2,1.6104797E0,7.267389E0,2.9243208E1,5.9552484E0,1.6134001E0,1.5293956E1,3.026769E1,4.3789654E0,7.964618E0,2.2769981E2,2.1412914E2,3.8851724E0,7.9671027E2,1.7234554E2,7.2720294E2],"tree_param":{"num_deleted":"0","num_feature":"5","num_nodes":"29","size_leaf_vector":"1"}},{"base_weights":[-8.2154936E-1,-1.6133492E-1,-8.5265326E-1,1.5303294E-1,-3.9623404E-1,-7.8112453E-1,-9.63508E-1,2.894839E-1,-4.3919986E-1,-6.509674E-1,-1.3040629E-1,-6.8830985E-1,-8.273906E-1,-9.4230795E-1,-1.0209439E0,1.02983285E-2,5.7253026E-4,-8.033607E-3,3.5659692E-3,-7.830432E-3,-1.0567072E-3,-5.847408E-3,2.1004668E-3,-7.4784383E-3,-4.00976E-3,3.756518E-3,-8.293148E-3,-9.482762E-3,7.6625757E-3,-1.038672E-2,-7.685859E-3],"categories":[],"categories_nodes":[],"categories_segments":[],"categories_sizes":[],"default_left":[0,0,0,0,0,0,0,0,0,0,0,0,0,0,0,0,0,0,0,0,0,0,0,0,0,0,0,0,0,0,0],"id":31,"left_children":[1,3,5,7,9,11,13,15,17,19,21,23,25,27,29,-1,-1,-1,-1,-1,-1,-1,-1,-1,-1,-1,-1,-1,-1,-1,-1],"loss_changes":[4.588672E1,7.598077E0,1.6217407E1,3.7129722E0,3.8898754E0,5.0390625E0,5.4748535E-2,6.245221E0,2.809588E0,2.0580006E0,4.7592106E0,7.2342224E0,2.317871E0,7.0785522E0,1.5527344E-1,0E0,0E0,0E0,0E0,0E0,0E0,0E0,0E0,0E0,0E0,0E0,0E0,0E0,0E0,0E0,0E0],"parents":[2147483647,0,0,1,1,2,2,3,3,4,4,5,5,6,6,7,7,8,8,9,9,10,10,11,11,12,12,13,13,14,14],"right_children":[2,4,6,8,10,12,14,16,18,20,22,24,26,28,30,-1,-1,-1,-1,-1,-1,-1,-1,-1,-1,-1,-1,-1,-1,-1,-1],"split_conditions":[1.774514E1,1.6200308E1,2.5730915E1,2.3930107E1,1.7173235E1,2.1023796E1,3.1903917E1,1.0049875E1,5.04E1,2.1852459E1,2.0777151E1,2.3093288E1,6.384685E0,3.8446976E1,5.85E1,1.02983285E-2,5.7253026E-4,-8.033607E-3,3.5659692E-3,-7.830432E-3,-1.0567072E-3,-5.847408E-3,2.1004668E-3,-7.4784383E-3,-4.00976E-3,3.756518E-3,-8.293148E-3,-9.482762E-3,7.6625757E-3,-1.038672E-2,-7.685859E-3],"split_indices":[2,2,2,3,2,2,2,2,1,3,3,3,0,3,1,0,0,0,0,0,0,0,0,0,0,0,0,0,0,0,0],"split_type":[0,0,0,0,0,0,0,0,0,0,0,0,0,0,0,0,0,0,0,0,0,0,0,0,0,0,0,0,0,0,0],"sum_hessian":[2.2402366E3,1.01071465E2,2.1391653E3,4.3373196E1,5.7698265E1,1.3050999E3,8.3406537E2,3.5666744E1,7.7064505E0,2.872412E1,2.8974146E1,4.3943106E2,8.6566876E2,6.2191693E2,2.1214845E2,7.696353E0,2.7970392E1,5.280542E0,2.4259086E0,2.2772436E1,5.951683E0,1.2103922E1,1.6870224E1,3.626825E2,7.6748566E1,1.0722681E0,8.645965E2,6.201955E2,1.721432E0,1.9531192E2,1.6836529E1],"tree_param":{"num_deleted":"0","num_feature":"5","num_nodes":"31","size_leaf_vector":"1"}},{"base_weights":[-8.1813127E-1,-1.5463655E-1,-8.4972596E-1,1.0661533E-1,-3.5499892E-1,-7.7533865E-1,-9.6568346E-1,-1.2282196E-1,4.0219E-1,-6.246168E-1,-9.803032E-2,-8.061348E-1,-6.614062E-1,-9.6665215E-1,-1.7148169E-3,-6.6248155E-3,3.5053592E-3,1.7295046E-2,-2.722405E-4,-3.0753731E-3,-7.5556687E-3,3.9416784E-3,-2.2264847E-3,1.891828E-3,-8.076584E-3,-5.872397E-3,-8.015703E-3,-9.689806E-3,-6.3202702E-3],"categories":[],"categories_nodes":[],"categories_segments":[],"categories_sizes":[],"default_left":[0,0,0,0,0,0,0,0,0,0,0,0,0,0,0,0,0,0,0,0,0,0,0,0,0,0,0,0,0],"id":32,"left_children":[1,3,5,7,9,11,13,15,17,19,21,23,25,27,-1,-1,-1,-1,-1,-1,-1,-1,-1,-1,-1,-1,-1,-1,-1],"loss_changes":[4.652356E1,5.397176E0,1.7573975E1,3.1152706E0,3.9693823E0,4.0250244E0,4.6984863E-1,6.9296675E0,1.1441186E1,9.386692E-1,1.9875338E0,1.6967773E0,2.4608688E0,3.0273438E-2,0E0,0E0,0E0,0E0,0E0,0E0,0E0,0E0,0E0,0E0,0E0,0E0,0E0,0E0,0E0],"parents":[2147483647,0,0,1,1,2,2,3,3,4,4,5,5,6,6,7,7,8,8,9,9,10,10,11,11,12,12,13,13],"right_children":[2,4,6,8,10,12,14,16,18,20,22,24,26,28,-1,-1,-1,-1,-1,-1,-1,-1,-1,-1,-1,-1,-1,-1,-1],"split_conditions":[1.774514E1,1.6200308E1,2.5730915E1,4.16E1,1.7173235E1,1.8460625E1,-1.09E1,-1.31E1,-1.48E1,3.74E1,3.29E1,6.384685E0,4.22E1,6.56E1,-1.7148169E-3,-6.6248155E-3,3.5053592E-3,1.7295046E-2,-2.722405E-4,-3.0753731E-3,-7.5556687E-3,3.9416784E-3,-2.2264847E-3,1.891828E-3,-8.076584E-3,-5.872397E-3,-8.015703E-3,-9.689806E-3,-6.3202702E-3],"split_indices":[2,2,2,1,2,0,4,4,4,1,1,0,1,1,0,0,0,0,0,0,0,0,0,0,0,0,0,0,0],"split_type":[0,0,0,0,0,0,0,0,0,0,0,0,0,0,0,0,0,0,0,0,0,0,0,0,0,0,0,0,0],"sum_hessian":[2.2245852E3,1.01384605E2,2.1232004E3,4.420879E1,5.7175816E1,1.2981298E3,8.250708E2,2.5217999E1,1.899079E1,2.7203018E1,2.9972797E1,1.0171235E3,2.8100626E2,8.238488E2,1.2219784E0,1.1597051E1,1.3620948E1,3.9020374E0,1.5088753E1,8.9296E0,1.8273418E1,5.618537E0,2.435426E1,1.3663056E0,1.0157572E3,1.8716132E2,9.3844955E1,8.162731E2,7.5757313E0],"tree_param":{"num_deleted":"0","num_feature":"5","num_nodes":"29","size_leaf_vector":"1"}},{"base_weights":[-8.091624E-1,-1.633167E-1,-8.401722E-1,1.6425264E-1,-4.1841012E-1,-7.650847E-1,-9.578971E-1,-1.7162837E-1,3.801046E-1,-6.622508E-1,-9.805499E-2,-6.7900074E-1,-8.0828464E-1,-1.8199929E-3,-9.588716E-1,-2.669721E-3,5.817688E-3,5.2923475E-5,1.0649858E-2,-8.604017E-3,-4.484959E-3,3.3071362E-3,-3.0335868E-3,-5.216112E-3,-7.829971E-3,-8.516825E-3,-7.729195E-3,-9.606553E-3,-4.105333E-3],"categories":[],"categories_nodes":[],"categories_segments":[],"categories_sizes":[],"default_left":[0,0,0,0,0,0,0,0,0,0,0,0,0,0,0,0,0,0,0,0,0,0,0,0,0,0,0,0,0],"id":33,"left_children":[1,3,5,7,9,11,13,15,17,19,21,23,25,-1,27,-1,-1,-1,-1,-1,-1,-1,-1,-1,-1,-1,-1,-1,-1],"loss_changes":[4.4046387E1,8.618204E0,1.7873169E1,3.3648853E0,4.4503384E0,4.2488403E0,4.4226074E-1,1.4837997E0,7.1865435E0,9.9689865E-1,2.4027386E0,6.749893E0,6.520386E-1,0E0,4.0222168E-1,0E0,0E0,0E0,0E0,0E0,0E0,0E0,0E0,0E0,0E0,0E0,0E0,0E0,0E0],"parents":[2147483647,0,0,1,1,2,2,3,3,4,4,5,5,6,6,7,7,8,8,9,9,10,10,11,11,12,12,14,14],"right_children":[2,4,6,8,10,12,14,16,18,20,22,24,26,-1,28,-1,-1,-1,-1,-1,-1,-1,-1,-1,-1,-1,-1,-1,-1],"split_conditions":[1.774514E1,1.6200308E1,2.5730915E1,1.7997194E1,2.1100948E1,2.1023796E1,2.4363293E1,3.0519667E1,-1.31E1,2.047071E1,1.8408005E1,-1.86E1,2.429856E1,-1.8199929E-3,-1.4E1,-2.669721E-3,5.817688E-3,5.2923475E-5,1.0649858E-2,-8.604017E-3,-4.484959E-3,3.3071362E-3,-3.0335868E-3,-5.216112E-3,-7.829971E-3,-8.516825E-3,-7.729195E-3,-9.606553E-3,-4.105333E-3],"split_indices":[2,2,2,0,3,2,3,3,4,3,0,4,3,0,4,0,0,0,0,0,0,0,0,0,0,0,0,0,0],"split_type":[0,0,0,0,0,0,0,0,0,0,0,0,0,0,0,0,0,0,0,0,0,0,0,0,0,0,0,0,0],"sum_hessian":[2.2051416E3,1.0131449E2,2.1038271E3,4.4512028E1,5.680246E1,1.2891066E3,8.1472046E2,1.749439E1,2.7017637E1,3.1646927E1,2.5155533E1,4.3633856E2,8.5276807E2,1.2574904E0,8.1346295E2,1.6102262E1,1.3921275E0,1.811283E1,8.904809E0,1.4853006E1,1.679392E1,7.9472227E0,1.720831E1,1.7599736E2,2.6034122E2,3.725342E2,4.8023386E2,8.1007587E2,3.3871017E0],"tree_param":{"num_deleted":"0","num_feature":"5","num_nodes":"29","size_leaf_vector":"1"}},{"base_weights":[-8.0282736E-1,-1.11124225E-1,-8.357234E-1,2.1218494E-1,-3.6067253E-1,-7.6006037E-1,-9.54868E-1,-1.4997858E-1,4.645364E-1,-4.9979612E-1,2.095693E-1,-6.725912E-1,-8.038692E-1,-1.7794479E-3,-9.55846E-1,2.874285E-3,-6.853688E-3,1.598722E-3,1.3079511E-2,-8.02709E-3,-3.2727101E-3,-7.7191107E-3,5.0755017E-3,-4.14499E-3,-7.304197E-3,-8.057548E-3,2.7171336E-3,-9.567994E-3,-2.105725E-3],"categories":[],"categories_nodes":[],"categories_segments":[],"categories_sizes":[],"default_left":[0,0,0,0,0,0,0,0,0,0,0,0,0,0,0,0,0,0,0,0,0,0,0,0,0,0,0,0,0],"id":34,"left_children":[1,3,5,7,9,11,13,15,17,19,21,23,25,-1,27,-1,-1,-1,-1,-1,-1,-1,-1,-1,-1,-1,-1,-1,-1],"loss_changes":[4.996167E1,8.227042E0,1.8203247E1,4.149109E0,4.657305E0,4.399109E0,4.4659424E-1,4.6666126E0,6.613263E0,2.1635008E0,3.889366E0,6.2092896E0,1.9505615E0,0E0,3.7438965E-1,0E0,0E0,0E0,0E0,0E0,0E0,0E0,0E0,0E0,0E0,0E0,0E0,0E0,0E0],"parents":[2147483647,0,0,1,1,2,2,3,3,4,4,5,5,6,6,7,7,8,8,9,9,10,10,11,11,12,12,14,14],"right_children":[2,4,6,8,10,12,14,16,18,20,22,24,26,-1,28,-1,-1,-1,-1,-1,-1,-1,-1,-1,-1,-1,-1,-1,-1],"split_conditions":[1.774514E1,1.6200308E1,2.5730915E1,1.7997194E1,2.2002954E1,2.1023796E1,2.4363293E1,1.5384679E1,-1.23E1,2.05E1,1.6885794E1,-1.96E1,2.055844E1,-1.7794479E-3,-1.09E1,2.874285E-3,-6.853688E-3,1.598722E-3,1.3079511E-2,-8.02709E-3,-3.2727101E-3,-7.7191107E-3,5.0755017E-3,-4.14499E-3,-7.304197E-3,-8.057548E-3,2.7171336E-3,-9.567994E-3,-2.105725E-3],"split_indices":[2,2,2,0,3,2,3,0,4,3,2,4,0,0,4,0,0,0,0,0,0,0,0,0,0,0,0,0,0],"split_type":[0,0,0,0,0,0,0,0,0,0,0,0,0,0,0,0,0,0,0,0,0,0,0,0,0,0,0,0,0],"sum_hessian":[2.1987803E3,1.0002116E2,2.098759E3,4.363646E1,5.6384693E1,1.2881167E3,8.1064233E2,1.8085968E1,2.5550493E1,4.542561E1,1.09590845E1,4.35315E2,8.528017E2,1.2491173E0,8.093932E2,1.0208717E1,7.87725E0,1.9644075E1,5.906418E0,1.5158391E1,3.0267218E1,2.1819084E0,8.777176E0,8.117849E1,3.5413654E2,8.515597E2,1.2420138E0,8.080756E2,1.3175502E0],"tree_param":{"num_deleted":"0","num_feature":"5","num_nodes":"29","size_leaf_vector":"1"}},{"base_weights":[-8.109022E-1,-1.2502673E-1,-8.4447503E-1,2.0309676E-1,-3.822374E-1,-7.649331E-1,-9.692824E-1,3.0275473E-1,-7.0299464E-1,-8.508E-1,-2.0708425E-1,-6.784724E-1,-8.078991E-1,-1.5015589E-3,-9.703038E-3,4.5451256E-3,-3.850377E-3,-8.094111E-3,-2.6852924E-3,-9.084038E-4,-9.006242E-3,-4.9697864E-3,5.935021E-4,-5.1296037E-3,-7.883423E-3,3.799062E-3,-8.098596E-3],"categories":[],"categories_nodes":[],"categories_segments":[],"categories_sizes":[],"default_left":[0,0,0,0,0,0,0,0,0,0,0,0,0,0,0,0,0,0,0,0,0,0,0,0,0,0,0],"id":35,"left_children":[1,3,5,7,9,11,13,15,17,19,21,23,25,-1,-1,-1,-1,-1,-1,-1,-1,-1,-1,-1,-1,-1,-1],"loss_changes":[4.9830322E1,8.717445E0,1.9781006E1,4.333871E0,4.56203E0,4.15979E0,5.244751E-1,4.5395026E0,5.645275E-3,5.008249E-1,3.3774662E0,7.3597107E0,2.2669678E0,0E0,0E0,0E0,0E0,0E0,0E0,0E0,0E0,0E0,0E0,0E0,0E0,0E0,0E0],"parents":[2147483647,0,0,1,1,2,2,3,3,4,4,5,5,6,6,7,7,8,8,9,9,10,10,11,11,12,12],"right_children":[2,4,6,8,10,12,14,16,18,20,22,24,26,-1,-1,-1,-1,-1,-1,-1,-1,-1,-1,-1,-1,-1,-1],"split_conditions":[1.774514E1,1.6200308E1,2.5730915E1,2.1820988E1,2.047071E1,2.1023796E1,2.42E1,2.4229734E1,2.033347E1,-1.74E1,1.7173235E1,-1.86E1,6.384685E0,-1.5015589E-3,-9.703038E-3,4.5451256E-3,-3.850377E-3,-8.094111E-3,-2.6852924E-3,-9.084038E-4,-9.006242E-3,-4.9697864E-3,5.935021E-4,-5.1296037E-3,-7.883423E-3,3.799062E-3,-8.098596E-3],"split_indices":[2,2,2,0,3,2,3,3,3,4,2,4,0,0,0,0,0,0,0,0,0,0,0,0,0,0,0],"split_type":[0,0,0,0,0,0,0,0,0,0,0,0,0,0,0,0,0,0,0,0,0,0,0,0,0,0,0],"sum_hessian":[2.1676057E3,1.01371254E2,2.0662346E3,4.463755E1,5.6733704E1,1.2663171E3,7.9991736E2,4.081438E1,3.8231707E0,1.438747E1,4.2346233E1,4.2595505E2,8.4036206E2,1.1805891E0,7.9873676E2,3.37146E1,7.099782E0,2.3777642E0,1.4454064E0,1.0589371E0,1.3328533E1,1.9865862E1,2.2480371E1,1.7220628E2,2.5374878E2,1.0670875E0,8.39295E2],"tree_param":{"num_deleted":"0","num_feature":"5","num_nodes":"27","size_leaf_vector":"1"}},{"base_weights":[-7.997E-1,-1.3653694E-1,-8.3133847E-1,1.863397E-1,-3.848582E-1,-7.520011E-1,-9.5632964E-1,3.0900678E-1,-3.8972384E-1,-7.8674006E-1,-2.2819792E-1,-7.21391E-1,-8.4818393E-1,-1.0341549E-3,-9.573578E-1,-3.4477995E-4,6.684276E-3,-8.899422E-3,1.8862062E-3,-2.472973E-3,-8.7530315E-3,-5.2925153E-3,4.989879E-4,-6.2894677E-3,-7.694797E-3,-8.557969E-3,-5.5019715E-5,-9.592293E-3,-3.7053453E-3],"categories":[],"categories_nodes":[],"categories_segments":[],"categories_sizes":[],"default_left":[0,0,0,0,0,0,0,0,0,0,0,0,0,0,0,0,0,0,0,0,0,0,0,0,0,0,0,0,0],"id":36,"left_children":[1,3,5,7,9,11,13,15,17,19,21,23,25,-1,27,-1,-1,-1,-1,-1,-1,-1,-1,-1,-1,-1,-1,-1,-1],"loss_changes":[4.5232666E1,8.058242E0,1.9734863E1,3.2281213E0,3.385994E0,3.1166992E0,6.0009766E-1,4.568122E0,2.5293956E0,5.22892E-1,3.5558612E0,3.8165588E0,1.9201813E0,0E0,5.189209E-1,0E0,0E0,0E0,0E0,0E0,0E0,0E0,0E0,0E0,0E0,0E0,0E0,0E0,0E0],"parents":[2147483647,0,0,1,1,2,2,3,3,4,4,5,5,6,6,7,7,8,8,9,9,10,10,11,11,12,12,14,14],"right_children":[2,4,6,8,10,12,14,16,18,20,22,24,26,-1,28,-1,-1,-1,-1,-1,-1,-1,-1,-1,-1,-1,-1,-1,-1],"split_conditions":[1.774514E1,1.6200308E1,2.5730915E1,2.4229734E1,2.047071E1,4.95E1,2.42E1,-1.31E1,4.49E1,-1.71E1,1.7173235E1,2.1023796E1,6.29E1,-1.0341549E-3,-1.4E1,-3.4477995E-4,6.684276E-3,-8.899422E-3,1.8862062E-3,-2.472973E-3,-8.7530315E-3,-5.2925153E-3,4.989879E-4,-6.2894677E-3,-7.694797E-3,-8.557969E-3,-5.5019715E-5,-9.592293E-3,-3.7053453E-3],"split_indices":[2,2,2,3,3,1,3,4,1,4,2,2,1,0,4,0,0,0,0,0,0,0,0,0,0,0,0,0,0],"split_type":[0,0,0,0,0,0,0,0,0,0,0,0,0,0,0,0,0,0,0,0,0,0,0,0,0,0,0,0,0],"sum_hessian":[2.1602485E3,9.861104E1,2.0616375E3,4.2978443E1,5.563259E1,1.2654303E3,7.962072E2,3.581548E1,7.1629663E0,1.4475787E1,4.1156807E1,9.6638074E2,2.990496E2,1.0809556E0,7.951262E2,1.877602E1,1.7039457E1,3.5520084E0,3.6109579E0,2.5762205E0,1.1899567E1,1.9329037E1,2.1827768E1,3.3550186E2,6.3087885E2,2.963567E2,2.6928988E0,7.9196594E2,3.1602666E0],"tree_param":{"num_deleted":"0","num_feature":"5","num_nodes":"29","size_leaf_vector":"1"}},{"base_weights":[-8.0670357E-1,-1.4014634E-1,-8.4008294E-1,1.2627769E-1,-3.5229152E-1,-7.643448E-1,-9.594532E-1,2.6389602E-1,-4.6994904E-1,-9.076489E-1,-1.5684162E-1,-7.9523844E-1,-6.5614843E-1,-9.922589E-1,-9.184343E-1,3.7009222E-3,-5.2085835E-3,-7.2170715E-3,4.329892E-3,-4.9715587E-3,-1.0138538E-2,-4.5046452E-3,1.0305087E-3,-7.969282E-3,3.6328852E-3,-6.8868035E-3,3.3749482E-3,-7.0566973E-3,-1.0003684E-2,-4.2710095E-3,-9.241444E-3],"categories":[],"categories_nodes":[],"categories_segments":[],"categories_sizes":[],"default_left":[0,0,0,0,0,0,0,0,0,0,0,0,0,0,0,0,0,0,0,0,0,0,0,0,0,0,0,0,0,0,0],"id":37,"left_children":[1,3,5,7,9,11,13,15,17,19,21,23,25,27,29,-1,-1,-1,-1,-1,-1,-1,-1,-1,-1,-1,-1,-1,-1,-1,-1],"loss_changes":[4.780835E1,5.9183807E0,1.7810547E1,3.9644525E0,6.166234E0,3.689331E0,1.5484619E-1,3.4152837E0,2.3895283E0,1.46451E-1,3.4192638E0,2.1987915E0,9.46254E0,2.8826904E-1,6.3079834E-1,0E0,0E0,0E0,0E0,0E0,0E0,0E0,0E0,0E0,0E0,0E0,0E0,0E0,0E0,0E0,0E0],"parents":[2147483647,0,0,1,1,2,2,3,3,4,4,5,5,6,6,7,7,8,8,9,9,10,10,11,11,12,12,13,13,14,14],"right_children":[2,4,6,8,10,12,14,16,18,20,22,24,26,28,30,-1,-1,-1,-1,-1,-1,-1,-1,-1,-1,-1,-1,-1,-1,-1,-1],"split_conditions":[1.774514E1,1.6200308E1,2.5730915E1,2.4229734E1,2.047071E1,1.8408005E1,1.3413931E1,2.1820988E1,3.0519667E1,2.0125854E1,1.7173235E1,3.3593155E1,2.4229734E1,7.2889605E0,1.3444842E1,3.7009222E-3,-5.2085835E-3,-7.2170715E-3,4.329892E-3,-4.9715587E-3,-1.0138538E-2,-4.5046452E-3,1.0305087E-3,-7.969282E-3,3.6328852E-3,-6.8868035E-3,3.3749482E-3,-7.0566973E-3,-1.0003684E-2,-4.2710095E-3,-9.241444E-3],"split_indices":[2,2,2,3,3,0,0,0,3,3,2,3,3,0,0,0,0,0,0,0,0,0,0,0,0,0,0,0,0,0,0],"split_type":[0,0,0,0,0,0,0,0,0,0,0,0,0,0,0,0,0,0,0,0,0,0,0,0,0,0,0,0,0,0,0],"sum_hessian":[2.1530461E3,1.0292489E2,2.050121E3,4.580505E1,5.711984E1,1.2588247E3,7.912965E2,3.7668068E1,8.136981E0,1.3920838E1,4.3198997E1,9.7428455E2,2.8454007E2,4.2678027E2,3.645162E2,3.3643665E1,4.0244036E0,6.519829E0,1.6171522E0,4.0290885E0,9.89175E0,1.9938963E1,2.3260036E1,9.7317725E2,1.1073362E0,2.7581674E2,8.723337E0,1.416629E1,4.1261398E2,5.058365E0,3.5945782E2],"tree_param":{"num_deleted":"0","num_feature":"5","num_nodes":"31","size_leaf_vector":"1"}},{"base_weights":[-7.891935E-1,-1.4730024E-1,-8.2091033E-1,1.3917862E-1,-3.802934E-1,-7.4064344E-1,-9.4715756E-1,-8.6970836E-2,4.1387558E-1,-4.6270463E-1,3.9462107E-1,-6.5044516E-1,-7.863176E-1,-9.380603E-4,-9.481944E-1,-5.424115E-3,4.800624E-3,1.614724E-2,2.9165627E-4,-6.542733E-3,-2.5662612E-3,1.0348158E-2,-4.7244756E-3,-4.764766E-3,-7.654205E-3,-7.890777E-3,1.6809201E-3,-9.501295E-3,-3.0758886E-3],"categories":[],"categories_nodes":[],"categories_segments":[],"categories_sizes":[],"default_left":[0,0,0,0,0,0,0,0,0,0,0,0,0,0,0,0,0,0,0,0,0,0,0,0,0,0,0,0,0],"id":38,"left_children":[1,3,5,7,9,11,13,15,17,19,21,23,25,-1,27,-1,-1,-1,-1,-1,-1,-1,-1,-1,-1,-1,-1,-1,-1],"loss_changes":[4.3300903E1,6.837343E0,1.9891724E1,2.9135628E0,3.7794056E0,4.6254883E0,6.068115E-1,7.034734E0,9.69561E0,1.8600225E0,3.7937553E0,8.135056E0,2.300537E0,0E0,6.810913E-1,0E0,0E0,0E0,0E0,0E0,0E0,0E0,0E0,0E0,0E0,0E0,0E0,0E0,0E0],"parents":[2147483647,0,0,1,1,2,2,3,3,4,4,5,5,6,6,7,7,8,8,9,9,10,10,11,11,12,12,14,14],"right_children":[2,4,6,8,10,12,14,16,18,20,22,24,26,-1,28,-1,-1,-1,-1,-1,-1,-1,-1,-1,-1,-1,-1,-1,-1],"split_conditions":[1.774514E1,1.6200308E1,2.5730915E1,4.16E1,2.3193102E1,2.1023796E1,2.429856E1,-1.23E1,-1.48E1,1.7173235E1,2.45204E1,-1.86E1,6.29E1,-9.380603E-4,-1.4E1,-5.424115E-3,4.800624E-3,1.614724E-2,2.9165627E-4,-6.542733E-3,-2.5662612E-3,1.0348158E-2,-4.7244756E-3,-4.764766E-3,-7.654205E-3,-7.890777E-3,1.6809201E-3,-9.501295E-3,-3.0758886E-3],"split_indices":[2,2,2,1,3,2,3,4,4,2,3,4,1,0,4,0,0,0,0,0,0,0,0,0,0,0,0,0,0],"split_type":[0,0,0,0,0,0,0,0,0,0,0,0,0,0,0,0,0,0,0,0,0,0,0,0,0,0,0,0,0],"sum_hessian":[2.131835E3,1.00642784E2,2.0311921E3,4.5320816E1,5.5321968E1,1.2459161E3,7.85276E2,2.523172E1,2.0089096E1,5.0368263E1,4.9537067E0,4.2394376E2,8.2197235E2,1.0639987E0,7.8421204E2,1.4016832E1,1.1214887E1,4.0985317E0,1.5990564E1,2.497596E1,2.5392302E1,2.738378E0,2.2153287E0,1.7074083E2,2.5320293E2,8.1977484E2,2.197493E0,7.813686E2,2.843453E0],"tree_param":{"num_deleted":"0","num_feature":"5","num_nodes":"29","size_leaf_vector":"1"}},{"base_weights":[-7.943047E-1,-1.3854305E-1,-8.2755476E-1,1.6894282E-1,-3.8416496E-1,-7.4708223E-1,-9.550138E-1,3.0384412E-1,-5.092859E-1,-5.316724E-1,1.5454344E-1,-6.5909976E-1,-7.913861E-1,-9.78973E-4,-9.5606816E-1,9.289791E-3,1.0177743E-3,-9.085965E-3,8.3865866E-4,-8.500862E-3,-3.5627778E-3,-7.644269E-3,4.0017865E-3,-4.841439E-3,-7.764953E-3,-7.941516E-3,1.609887E-3,-9.580156E-3,-3.4294778E-3],"categories":[],"categories_nodes":[],"categories_segments":[],"categories_sizes":[],"default_left":[0,0,0,0,0,0,0,0,0,0,0,0,0,0,0,0,0,0,0,0,0,0,0,0,0,0,0,0,0],"id":39,"left_children":[1,3,5,7,9,11,13,15,17,19,21,23,25,-1,27,-1,-1,-1,-1,-1,-1,-1,-1,-1,-1,-1,-1,-1,-1],"loss_changes":[4.6222046E1,7.901048E0,2.003003E1,4.433896E0,4.6898956E0,4.3285522E0,6.1053467E-1,4.9123335E0,2.002505E0,2.251975E0,3.2944164E0,8.306015E0,2.2944336E0,0E0,6.0040283E-1,0E0,0E0,0E0,0E0,0E0,0E0,0E0,0E0,0E0,0E0,0E0,0E0,0E0,0E0],"parents":[2147483647,0,0,1,1,2,2,3,3,4,4,5,5,6,6,7,7,8,8,9,9,10,10,11,11,12,12,14,14],"right_children":[2,4,6,8,10,12,14,16,18,20,22,24,26,-1,28,-1,-1,-1,-1,-1,-1,-1,-1,-1,-1,-1,-1,-1,-1],"split_conditions":[1.774514E1,1.6200308E1,2.5730915E1,2.4229734E1,2.1973848E1,2.1023796E1,2.42E1,1.0049875E1,4.49E1,2.047071E1,1.6885794E1,-1.86E1,6.29E1,-9.78973E-4,-1.4E1,9.289791E-3,1.0177743E-3,-9.085965E-3,8.3865866E-4,-8.500862E-3,-3.5627778E-3,-7.644269E-3,4.0017865E-3,-4.841439E-3,-7.764953E-3,-7.941516E-3,1.609887E-3,-9.580156E-3,-3.4294778E-3],"split_indices":[2,2,2,3,3,2,3,2,1,3,2,4,1,0,4,0,0,0,0,0,0,0,0,0,0,0,0,0,0],"split_type":[0,0,0,0,0,0,0,0,0,0,0,0,0,0,0,0,0,0,0,0,0,0,0,0,0,0,0,0,0],"sum_hessian":[2.1241423E3,1.0275529E2,2.0213871E3,4.5769794E1,5.6985497E1,1.2432869E3,7.7810016E2,3.8636837E1,7.1329536E0,4.4746273E1,1.2239221E1,4.2170538E2,8.2158154E2,1.0712558E0,7.770289E2,8.559346E0,3.0077492E1,3.9452171E0,3.1877367E0,1.4527017E1,3.0219257E1,2.1359951E0,1.0103226E1,1.7139609E2,2.503093E2,8.1936835E2,2.2132E0,7.740079E2,3.0209982E0],"tree_param":{"num_deleted":"0","num_feature":"5","num_nodes":"29","size_leaf_vector":"1"}},{"base_weights":[-7.86128E-1,-1.323454E-1,-8.188767E-1,1.2754525E-1,-3.3242998E-1,-7.373628E-1,-9.4900286E-1,-3.5700464E-1,2.22087E-1,-6.3572365E-1,-9.898079E-2,-6.426427E-1,-7.8528583E-1,-9.742973E-4,-9.500575E-1,8.3290983E-4,-8.430401E-3,1.15045495E-2,7.34134E-4,-3.3662247E-3,-7.582058E-3,-4.9210438E-3,2.3852363E-3,-6.9941794E-3,-3.7065155E-3,3.1686367E-3,-7.8722825E-3,-6.813174E-3,-9.538991E-3],"categories":[],"categories_nodes":[],"categories_segments":[],"categories_sizes":[],"default_left":[0,0,0,0,0,0,0,0,0,0,0,0,0,0,0,0,0,0,0,0,0,0,0,0,0,0,0,0,0],"id":40,"left_children":[1,3,5,7,9,11,13,15,17,19,21,23,25,-1,27,-1,-1,-1,-1,-1,-1,-1,-1,-1,-1,-1,-1,-1,-1],"loss_changes":[4.5223755E1,5.3563232E0,2.0684937E1,2.1487436E0,4.0448217E0,5.142578E0,6.017456E-1,1.7305648E0,5.217857E0,6.62426E-1,4.62417E0,6.280121E0,2.0083313E0,0E0,1.4697266E-1,0E0,0E0,0E0,0E0,0E0,0E0,0E0,0E0,0E0,0E0,0E0,0E0,0E0,0E0],"parents":[2147483647,0,0,1,1,2,2,3,3,4,4,5,5,6,6,7,7,8,8,9,9,10,10,11,11,12,12,14,14],"right_children":[2,4,6,8,10,12,14,16,18,20,22,24,26,-1,28,-1,-1,-1,-1,-1,-1,-1,-1,-1,-1,-1,-1,-1,-1],"split_conditions":[1.774514E1,1.6200308E1,2.5730915E1,1.4029358E1,2.0777151E1,2.1023796E1,2.42E1,1.2434374E1,3.05E1,3.81E1,1.7173235E1,2.3093288E1,6.384685E0,-9.742973E-4,7.2889605E0,8.3290983E-4,-8.430401E-3,1.15045495E-2,7.34134E-4,-3.3662247E-3,-7.582058E-3,-4.9210438E-3,2.3852363E-3,-6.9941794E-3,-3.7065155E-3,3.1686367E-3,-7.8722825E-3,-6.813174E-3,-9.538991E-3],"split_indices":[2,2,2,0,3,2,3,0,1,1,2,3,0,0,0,0,0,0,0,0,0,0,0,0,0,0,0,0,0],"split_type":[0,0,0,0,0,0,0,0,0,0,0,0,0,0,0,0,0,0,0,0,0,0,0,0,0,0,0,0,0],"sum_hessian":[2.116282E3,1.0119062E2,2.0150914E3,4.4174603E1,5.7016018E1,1.243071E3,7.7202045E2,6.7586565E0,3.7415947E1,2.4048887E1,3.2967133E1,4.2246915E2,8.2060187E2,1.0704367E0,7.7095E2,3.9809647E0,2.7776918E0,4.234731E0,3.3181217E1,8.075898E0,1.5972989E1,1.5017153E1,1.794998E1,3.4821204E2,7.42571E1,1.1584545E0,8.194434E2,1.3379223E1,7.575708E2],"tree_param":{"num_deleted":"0","num_feature":"5","num_nodes":"29","size_leaf_vector":"1"}},{"base_weights":[-7.870904E-1,-1.456858E-1,-8.192381E-1,1.7262727E-1,-4.008684E-1,-7.400511E-1,-9.4482625E-1,-5.3060824E-1,3.199651E-1,5.5707745E-2,-5.110757E-1,-7.80452E-1,-6.275879E-1,-9.4679916E-1,-3.005861E-1,-7.0550554E-3,2.6286908E-3,1.3023487E-2,1.5822531E-3,1.0390205E-2,-4.226545E-3,-9.1512135E-4,-5.7070167E-3,-7.4742343E-3,-8.487942E-3,4.5405462E-4,-6.4388756E-3,-1.0106561E-2,-9.257167E-3,-6.4823385E-3,1.6489755E-3],"categories":[],"categories_nodes":[],"categories_segments":[],"categories_sizes":[],"default_left":[0,0,0,0,0,0,0,0,0,0,0,0,0,0,0,0,0,0,0,0,0,0,0,0,0,0,0,0,0,0,0],"id":41,"left_children":[1,3,5,7,9,11,13,15,17,19,21,23,25,27,29,-1,-1,-1,-1,-1,-1,-1,-1,-1,-1,-1,-1,-1,-1,-1,-1],"loss_changes":[4.3202026E1,8.31325E0,1.9195557E1,4.921394E0,2.8781586E0,5.105774E0,6.940918E-1,1.3400791E0,5.9174504E0,6.0431256E0,1.0915413E0,1.4014282E0,3.6555786E0,9.710693E-2,7.2439766E-1,0E0,0E0,0E0,0E0,0E0,0E0,0E0,0E0,0E0,0E0,0E0,0E0,0E0,0E0,0E0,0E0],"parents":[2147483647,0,0,1,1,2,2,3,3,4,4,5,5,6,6,7,7,8,8,9,9,10,10,11,11,12,12,13,13,14,14],"right_children":[2,4,6,8,10,12,14,16,18,20,22,24,26,28,30,-1,-1,-1,-1,-1,-1,-1,-1,-1,-1,-1,-1,-1,-1,-1,-1],"split_conditions":[1.774514E1,1.6200308E1,2.5730915E1,1.4363743E1,1.7524199E1,1.8083109E1,-1.4E1,5.99E1,3.05E1,-1.5E1,3.29E1,4.95E1,1.812186E1,-3.05E1,2.806439E1,-7.0550554E-3,2.6286908E-3,1.3023487E-2,1.5822531E-3,1.0390205E-2,-4.226545E-3,-9.1512135E-4,-5.7070167E-3,-7.4742343E-3,-8.487942E-3,4.5405462E-4,-6.4388756E-3,-1.0106561E-2,-9.257167E-3,-6.4823385E-3,1.6489755E-3],"split_indices":[2,2,2,0,0,0,4,1,1,4,1,1,0,4,2,0,0,0,0,0,0,0,0,0,0,0,0,0,0,0,0],"split_type":[0,0,0,0,0,0,0,0,0,0,0,0,0,0,0,0,0,0,0,0,0,0,0,0,0,0,0,0,0,0,0],"sum_hessian":[2.0999731E3,1.0049275E2,1.9994803E3,4.4859196E1,5.5633556E1,1.2305039E3,7.689765E2,7.3199873E0,3.7539207E1,1.09137335E1,4.4719822E1,9.009202E2,3.2958365E2,7.661606E2,2.8158994E0,6.0887756E0,1.2312118E0,4.3098273E0,3.322938E1,3.1881642E0,7.7255697E0,5.87993E0,3.8839893E1,6.154306E2,2.8548962E2,7.751417E0,3.2183224E2,1.7851518E2,5.8764545E2,1.3872356E0,1.4286637E0],"tree_param":{"num_deleted":"0","num_feature":"5","num_nodes":"31","size_leaf_vector":"1"}},{"base_weights":[-7.913253E-1,-1.6244523E-1,-8.227788E-1,1.3829319E-1,-4.0561476E-1,-7.4534553E-1,-9.458557E-1,-1.3416858E-1,3.518834E-1,-7.7472854E-1,-1.2872018E-1,-6.58179E-1,-7.8901E-1,-1.3872238E-3,-9.4690496E-1,8.397632E-4,-7.5659975E-3,-2.9833582E-3,6.297999E-3,-9.050469E-3,-4.938082E-3,-5.4164645E-3,2.3238612E-3,-7.1897935E-3,-3.6972133E-3,-7.910467E-3,3.6724755E-3,-9.4887735E-3,-3.3580987E-3],"categories":[],"categories_nodes":[],"categories_segments":[],"categories_sizes":[],"default_left":[0,0,0,0,0,0,0,0,0,0,0,0,0,0,0,0,0,0,0,0,0,0,0,0,0,0,0,0,0],"id":42,"left_children":[1,3,5,7,9,11,13,15,17,19,21,23,25,-1,27,-1,-1,-1,-1,-1,-1,-1,-1,-1,-1,-1,-1,-1,-1],"loss_changes":[4.096118E1,7.384138E0,1.8149048E1,2.6977284E0,5.5890245E0,4.1205444E0,5.1257324E-1,2.8793929E0,4.8513803E0,4.191742E-1,5.046803E0,6.97554E0,2.1914368E0,0E0,5.963745E-1,0E0,0E0,0E0,0E0,0E0,0E0,0E0,0E0,0E0,0E0,0E0,0E0,0E0,0E0],"parents":[2147483647,0,0,1,1,2,2,3,3,4,4,5,5,6,6,7,7,8,8,9,9,10,10,11,11,12,12,14,14],"right_children":[2,4,6,8,10,12,14,16,18,20,22,24,26,-1,28,-1,-1,-1,-1,-1,-1,-1,-1,-1,-1,-1,-1,-1,-1],"split_conditions":[1.774514E1,1.6200308E1,2.5730915E1,-1.31E1,2.0777151E1,2.1023796E1,2.42E1,2.18E1,1.4393652E1,2.05E1,1.7173235E1,2.3093288E1,2.055844E1,-1.3872238E-3,-1.4E1,8.397632E-4,-7.5659975E-3,-2.9833582E-3,6.297999E-3,-9.050469E-3,-4.938082E-3,-5.4164645E-3,2.3238612E-3,-7.1897935E-3,-3.6972133E-3,-7.910467E-3,3.6724755E-3,-9.4887735E-3,-3.3580987E-3],"split_indices":[2,2,2,4,3,2,3,3,0,3,2,3,0,0,4,0,0,0,0,0,0,0,0,0,0,0,0,0,0],"split_type":[0,0,0,0,0,0,0,0,0,0,0,0,0,0,0,0,0,0,0,0,0,0,0,0,0,0,0,0,0],"sum_hessian":[2.0765396E3,9.920514E1,1.9773344E3,4.45453E1,5.465984E1,1.2180554E3,7.5927893E2,1.9738344E1,2.4806955E1,2.2657879E1,3.200196E1,4.1188684E2,8.061686E2,1.158748E0,7.581202E2,1.525646E1,4.481884E0,7.4060755E0,1.740088E1,1.3960097E1,8.697781E0,1.4696499E1,1.7305462E1,3.3895108E2,7.293575E1,8.050663E2,1.1022847E0,7.5513007E2,2.9900775E0],"tree_param":{"num_deleted":"0","num_feature":"5","num_nodes":"29","size_leaf_vector":"1"}},{"base_weights":[-7.7755934E-1,-1.3067463E-1,-8.104084E-1,3.917586E-1,-2.0478119E-1,-7.3048097E-1,-9.373718E-1,8.9038676E-1,-6.8446493E-1,-2.795735E-1,3.6735132E-1,-6.4523137E-1,-7.736164E-1,-8.617833E-4,-9.3844265E-1,1.4849664E-2,7.276084E-4,-1.129619E-3,-8.223056E-3,-2.349464E-3,-9.031191E-3,1.6244678E-2,-2.496176E-3,-7.0148325E-3,-3.7408387E-3,-7.7639744E-3,1.4041403E-3,-6.779357E-3,-9.422191E-3],"categories":[],"categories_nodes":[],"categories_segments":[],"categories_sizes":[],"default_left":[0,0,0,0,0,0,0,0,0,0,0,0,0,0,0,0,0,0,0,0,0,0,0,0,0,0,0,0,0],"id":43,"left_children":[1,3,5,7,9,11,13,15,17,19,21,23,25,-1,27,-1,-1,-1,-1,-1,-1,-1,-1,-1,-1,-1,-1,-1,-1],"loss_changes":[4.3783325E1,3.9907613E0,1.9259888E1,7.5272274E0,3.916048E0,3.9527588E0,6.080322E-1,4.38592E0,2.7317905E-1,1.996737E0,8.731557E0,6.0336304E0,2.1397095E0,0E0,1.0369873E-1,0E0,0E0,0E0,0E0,0E0,0E0,0E0,0E0,0E0,0E0,0E0,0E0,0E0,0E0],"parents":[2147483647,0,0,1,1,2,2,3,3,4,4,5,5,6,6,7,7,8,8,9,9,10,10,11,11,12,12,14,14],"right_children":[2,4,6,8,10,12,14,16,18,20,22,24,26,-1,28,-1,-1,-1,-1,-1,-1,-1,-1,-1,-1,-1,-1,-1,-1],"split_conditions":[1.774514E1,1.0049875E1,2.5730915E1,2.384114E1,5.13E1,2.1023796E1,2.429856E1,3.9E1,2.5109758E1,4.96E1,5.28E1,2.3093288E1,6.29E1,-8.617833E-4,7.2889605E0,1.4849664E-2,7.276084E-4,-1.129619E-3,-8.223056E-3,-2.349464E-3,-9.031191E-3,1.6244678E-2,-2.496176E-3,-7.0148325E-3,-3.7408387E-3,-7.7639744E-3,1.4041403E-3,-6.779357E-3,-9.422191E-3],"split_indices":[2,2,2,3,1,2,3,1,3,1,1,3,1,0,0,0,0,0,0,0,0,0,0,0,0,0,0,0,0],"split_type":[0,0,0,0,0,0,0,0,0,0,0,0,0,0,0,0,0,0,0,0,0,0,0,0,0,0,0,0,0],"sum_hessian":[2.064417E3,1.0000641E2,1.9644106E3,1.1891042E1,8.811537E1,1.2096509E3,7.5475977E2,8.244113E0,3.6469285E0,7.83804E1,9.73497E0,4.1178568E2,7.9786523E2,1.0507061E0,7.5370905E2,4.3005495E0,3.9435635E0,1.0622463E0,2.5846822E0,7.443022E1,3.9501743E0,2.6672614E0,7.067709E0,3.3972064E2,7.206504E1,7.955951E2,2.2701676E0,1.334985E1,7.403592E2],"tree_param":{"num_deleted":"0","num_feature":"5","num_nodes":"29","size_leaf_vector":"1"}},{"base_weights":[-7.833558E-1,-1.208102E-1,-8.172084E-1,1.6384502E-1,-3.4007132E-1,-7.3208815E-1,-9.352717E-1,-4.515985E-1,2.7834985E-1,-8.384812E-1,-1.5905094E-1,-6.446466E-1,-7.8023404E-1,-8.397338E-1,-9.573457E-1,-1.2630805E-4,-8.485989E-3,1.7462922E-2,1.4306611E-3,-1.966925E-3,-9.442175E-3,-4.1504893E-3,5.7573116E-4,-4.7747055E-3,-7.576351E-3,-7.824312E-3,3.0758744E-3,-8.5204225E-3,-2.9352745E-3,-9.615288E-3,-5.897706E-3],"categories":[],"categories_nodes":[],"categories_segments":[],"categories_sizes":[],"default_left":[0,0,0,0,0,0,0,0,0,0,0,0,0,0,0,0,0,0,0,0,0,0,0,0,0,0,0,0,0,0,0],"id":44,"left_children":[1,3,5,7,9,11,13,15,17,19,21,23,25,27,29,-1,-1,-1,-1,-1,-1,-1,-1,-1,-1,-1,-1,-1,-1,-1,-1],"loss_changes":[4.599182E1,6.363707E0,1.896106E1,3.2722864E0,5.0468955E0,4.298645E0,9.1552734E-1,1.2763612E0,7.3491764E0,8.3648586E-1,2.4280605E0,7.3967743E0,1.9873047E0,8.334503E-1,4.4036865E-1,0E0,0E0,0E0,0E0,0E0,0E0,0E0,0E0,0E0,0E0,0E0,0E0,0E0,0E0,0E0,0E0],"parents":[2147483647,0,0,1,1,2,2,3,3,4,4,5,5,6,6,7,7,8,8,9,9,10,10,11,11,12,12,13,13,14,14],"right_children":[2,4,6,8,10,12,14,16,18,20,22,24,26,28,30,-1,-1,-1,-1,-1,-1,-1,-1,-1,-1,-1,-1,-1,-1,-1,-1],"split_conditions":[1.774514E1,1.6200308E1,2.5304941E1,1.4029358E1,2.047071E1,2.1023796E1,2.7530529E1,1.2434374E1,1.4893442E1,-1.71E1,1.7173235E1,-1.86E1,2.055844E1,2.8151377E1,-1.97E1,-1.2630805E-4,-8.485989E-3,1.7462922E-2,1.4306611E-3,-1.966925E-3,-9.442175E-3,-4.1504893E-3,5.7573116E-4,-4.7747055E-3,-7.576351E-3,-7.824312E-3,3.0758744E-3,-8.5204225E-3,-2.9352745E-3,-9.615288E-3,-5.897706E-3],"split_indices":[2,2,2,0,3,2,3,0,0,4,2,4,0,2,4,0,0,0,0,0,0,0,0,0,0,0,0,0,0,0,0],"split_type":[0,0,0,0,0,0,0,0,0,0,0,0,0,0,0,0,0,0,0,0,0,0,0,0,0,0,0,0,0,0,0],"sum_hessian":[2.0539578E3,1.0006717E2,1.9538905E3,4.3650608E1,5.6416565E1,1.1395256E3,8.143649E2,6.3855357E0,3.726507E1,1.406338E1,4.2353184E1,4.0974463E2,7.2978094E2,1.6017224E2,6.541927E2,3.522493E0,2.863043E0,2.1396542E0,3.512542E1,2.3938177E0,1.1669563E1,1.899254E1,2.3360641E1,1.673549E2,2.4238974E2,7.285901E2,1.1908436E0,1.560948E2,4.0774393E0,6.4523395E2,8.958786E0],"tree_param":{"num_deleted":"0","num_feature":"5","num_nodes":"31","size_leaf_vector":"1"}},{"base_weights":[-7.77371E-1,-1.01422556E-1,-8.1116647E-1,1.5244962E-1,-3.107061E-1,-7.271231E-1,-9.451892E-1,-1.06074505E-1,4.7181422E-1,-8.226691E-1,-1.2431464E-1,-6.317501E-1,-7.7519345E-1,-8.9714617E-1,-9.912584E-1,6.1854515E-3,-4.3714894E-3,1.1416291E-3,1.2585181E-2,-8.653108E-3,-2.988459E-3,-4.2829695E-3,1.3245568E-3,-7.732956E-3,-5.327491E-3,-7.7801314E-3,1.458994E-3,-9.1481805E-3,-3.7626985E-3,-2.8641056E-3,-9.958861E-3],"categories":[],"categories_nodes":[],"categories_segments":[],"categories_sizes":[],"default_left":[0,0,0,0,0,0,0,0,0,0,0,0,0,0,0,0,0,0,0,0,0,0,0,0,0,0,0,0,0,0,0],"id":45,"left_children":[1,3,5,7,9,11,13,15,17,19,21,23,25,27,29,-1,-1,-1,-1,-1,-1,-1,-1,-1,-1,-1,-1,-1,-1,-1,-1],"loss_changes":[4.6466064E1,5.263227E0,2.1170044E1,3.7678847E0,5.0639977E0,4.997864E0,7.5860596E-1,6.4363537E0,5.575978E0,6.01902E-2,3.246583E0,5.2847137E0,2.1690369E0,3.1075745E0,9.234619E-1,0E0,0E0,0E0,0E0,0E0,0E0,0E0,0E0,0E0,0E0,0E0,0E0,0E0,0E0,0E0,0E0],"parents":[2147483647,0,0,1,1,2,2,3,3,4,4,5,5,6,6,7,7,8,8,9,9,10,10,11,11,12,12,13,13,14,14],"right_children":[2,4,6,8,10,12,14,16,18,20,22,24,26,28,30,-1,-1,-1,-1,-1,-1,-1,-1,-1,-1,-1,-1,-1,-1,-1,-1],"split_conditions":[1.774514E1,1.6200308E1,2.5730915E1,4.16E1,2.047071E1,2.1023796E1,3.0438463E1,3.05E1,2.0328562E1,5.18E1,1.7173235E1,2.12E1,6.29E1,3E1,2.6370628E1,6.1854515E-3,-4.3714894E-3,1.1416291E-3,1.2585181E-2,-8.653108E-3,-2.988459E-3,-4.2829695E-3,1.3245568E-3,-7.732956E-3,-5.327491E-3,-7.7801314E-3,1.458994E-3,-9.1481805E-3,-3.7626985E-3,-2.8641056E-3,-9.958861E-3],"split_indices":[2,2,2,1,3,2,3,1,0,1,2,3,1,2,2,0,0,0,0,0,0,0,0,0,0,0,0,0,0,0,0],"split_type":[0,0,0,0,0,0,0,0,0,0,0,0,0,0,0,0,0,0,0,0,0,0,0,0,0,0,0,0,0,0,0],"sum_hessian":[2.036665E3,9.7169304E1,1.9394957E3,4.4030056E1,5.313925E1,1.195957E3,7.4353876E2,2.4701868E1,1.9328186E1,1.3271808E1,3.9867447E1,4.055253E2,7.904317E2,3.739941E2,3.6954462E2,7.474406E0,1.722746E1,1.4074674E1,5.253513E0,1.1669907E1,1.6019013E0,1.7949537E1,2.191791E1,1.640976E2,2.4142772E2,7.8817426E2,2.257482E0,3.6099036E2,1.3003747E1,2.8207324E0,3.6672388E2],"tree_param":{"num_deleted":"0","num_feature":"5","num_nodes":"31","size_leaf_vector":"1"}},{"base_weights":[-7.799252E-1,-1.6173486E-1,-8.118694E-1,1.1791389E-1,-3.8989663E-1,-7.329587E-1,-9.387916E-1,2.31689E-1,-4.8307976E-1,-5.083047E-1,5.336517E-2,-7.9549915E-1,-6.7935085E-1,-7.889777E-1,-9.480401E-1,-4.293992E-3,4.0153572E-3,2.2305653E-3,-6.601669E-3,-7.7057024E-3,-3.605122E-3,-7.960381E-3,3.3593907E-3,-7.9855E-3,3.932378E-3,-2.1934538E-4,-6.830757E-3,-8.854495E-3,-4.101442E-3,-9.490858E-3,-3.238973E-3],"categories":[],"categories_nodes":[],"categories_segments":[],"categories_sizes":[],"default_left":[0,0,0,0,0,0,0,0,0,0,0,0,0,0,0,0,0,0,0,0,0,0,0,0,0,0,0,0,0,0,0],"id":46,"left_children":[1,3,5,7,9,11,13,15,17,19,21,23,25,27,29,-1,-1,-1,-1,-1,-1,-1,-1,-1,-1,-1,-1,-1,-1,-1,-1],"loss_changes":[4.0024536E1,6.5006504E0,1.8674805E1,3.2723966E0,2.963274E0,3.4716187E0,2.7398682E-1,4.6120157E0,1.1077975E0,1.4371147E0,3.3152611E0,2.2958984E0,1.5797119E0,1.4220772E0,1.4276123E-1,0E0,0E0,0E0,0E0,0E0,0E0,0E0,0E0,0E0,0E0,0E0,0E0,0E0,0E0,0E0,0E0],"parents":[2147483647,0,0,1,1,2,2,3,3,4,4,5,5,6,6,7,7,8,8,9,9,10,10,11,11,12,12,13,13,14,14],"right_children":[2,4,6,8,10,12,14,16,18,20,22,24,26,28,30,-1,-1,-1,-1,-1,-1,-1,-1,-1,-1,-1,-1,-1,-1,-1,-1],"split_conditions":[1.774514E1,1.6200308E1,2.5730915E1,2.1478792E1,2.1973848E1,1.6365137E1,2.6683329E1,1.4393652E1,2.0125854E1,2.047071E1,1.6885794E1,3.3593155E1,2.0048191E1,2.6437284E1,-1.4E1,-4.293992E-3,4.0153572E-3,2.2305653E-3,-6.601669E-3,-7.7057024E-3,-3.605122E-3,-7.960381E-3,3.3593907E-3,-7.9855E-3,3.932378E-3,-2.1934538E-4,-6.830757E-3,-8.854495E-3,-4.101442E-3,-9.490858E-3,-3.238973E-3],"split_indices":[2,2,2,0,3,0,3,0,3,3,2,3,3,3,4,0,0,0,0,0,0,0,0,0,0,0,0,0,0,0,0],"split_type":[0,0,0,0,